{"learner":{"attributes":{},"feature_names":[],"feature_types":[],"gradient_booster":{"model":{"gbtree_model_param":{"num_trees":"400","size_leaf_vector":"0"},
"tree_info":[0,0,0,0,0,0,0,0,0,0,0,0,0,0,0,0,0,0,0,0,0,0,0,0,0,0,0,0,0,0,0,0,0,0,0,0,0,0,0,0,0,0,0,0,0,0,0,0,0,0,0,0,0,0,0,0,0,0,0,0,0,0,0,0,0,0,0,0,0,0,0,0,0,0,0,0,0,0,0,0,0,0,0,0,0,0,0,0,0,0,0,0,0,0,0,0,0,0,0,0,0,0,0,0,0,0,0,0,0,0,0,0,0,0,0,0,0,0,0,0,0,0,0,0,0,0,0,0,0,0,0,0,0,0,0,0,0,0,0,0,0,0,0,0,0,0,0,0,0,0,0,0,0,0,0,0,0,0,0,0,0,0,0,0,0,0,0,0,0,0,0,0,0,0,0,0,0,0,0,0,0,0,0,0,0,0,0,0,0,0,0,0,0,0,0,0,0,0,0,0,0,0,0,0,0,0,0,0,0,0,0,0,0,0,0,0,0,0,0,0,0,0,0,0,0,0,0,0,0,0,0,0,0,0,0,0,0,0,0,0,0,0,0,0,0,0,0,0,0,0,0,0,0,0,0,0,0,0,0,0,0,0,0,0,0,0,0,0,0,0,0,0,0,0,0,0,0,0,0,0,0,0,0,0,0,0,0,0,0,0,0,0,0,0,0,0,0,0,0,0,0,0,0,0,0,0,0,0,0,0,0,0,0,0,0,0,0,0,0,0,0,0,0,0,0,0,0,0,0,0,0,0,0,0,0,0,0,0,0,0,0,0,0,0,0,0,0,0,0,0,0,0,0,0,0,0,0,0,0,0,0,0,0,0,0,0,0,0,0,0,0,0,0,0,0,0,0,0,0,0,0,0,0,0,0,0,0,0,0,0,0,0,0,0,0,0,0,0,0,0],
"trees":
[
{
"base_weights":[0.0,0.0,0.0,0.0,0.0,0.0,0.0,0.0,0.0,0.0,0.0,0.0,0.0,0.0,0.0],
"categories":[],"categories_nodes":[],"categories_segments":[],"categories_sizes":[],
"default_left":[true,true,true,true,true,true,true,false,false,false,false,false,false,false,false],
"id":0,
"left_children":[1,3,5,7,9,11,13,-1,-1,-1,-1,-1,-1,-1,-1],
"loss_changes":[0.0,0.0,0.0,0.0,0.0,0.0,0.0,0.0,0.0,0.0,0.0,0.0,0.0,0.0,0.0],
"parents":[2147483647,0,0,1,1,2,2,3,3,4,4,5,5,6,6],
"right_children":[2,4,6,8,10,12,14,-1,-1,-1,-1,-1,-1,-1,-1],
"split_conditions":[1.5305423736572266e+00,3.2514347076416016e+01,4.0843376159667969e+01,2.6928164958953857e+00,3.2168151855468750e+01,8.8770912170410156e+01,2.0068827819824219e+02,3.7205785512924194e-02,-1.1800902895629406e-02,4.3125760555267334e-01,3.0816400051116943e-01,-3.9622548222541809e-01,-2.1231429278850555e-01,1.4591862261295319e-01,-2.4550558626651764e-01],
"split_indices":[7,23,23,2,0,24,1,0,0,0,0,0,0,0,0],
"split_type":[0,0,0,0,0,0,0,0,0,0,0,0,0,0,0],
"sum_hessian":[0.0,0.0,0.0,0.0,0.0,0.0,0.0,0.0,0.0,0.0,0.0,0.0,0.0,0.0,0.0],
"tree_param":{"num_deleted":"0","num_feature":"27","num_nodes":"15","size_leaf_vector":"0"}
},
{
"base_weights":[0.0,0.0,0.0,0.0,0.0,0.0,0.0,0.0,0.0,0.0,0.0,0.0,0.0],
"categories":[],"categories_nodes":[],"categories_segments":[],"categories_sizes":[],
"default_left":[true,true,true,false,true,true,true,false,false,false,false,false,false],
"id":1,
"left_children":[1,3,5,-1,7,9,11,-1,-1,-1,-1,-1,-1],
"loss_changes":[0.0,0.0,0.0,0.0,0.0,0.0,0.0,0.0,0.0,0.0,0.0,0.0,0.0],
"parents":[2147483647,0,0,1,1,2,2,4,4,5,5,6,6],
"right_children":[2,4,6,-1,8,10,12,-1,-1,-1,-1,-1,-1],
"split_conditions":[1.2831289768218994e+00,2.9921737313270569e-01,2.4921493530273438e+01,1.3714978471398354e-02,4.2857143282890320e-01,3.6351562500000000e+01,2.6795513153076172e+01,3.0272549390792847e-01,1.9780164957046509e-01,-2.4167345464229584e-01,-1.0565970093011856e-01,1.7398494482040405e-01,-1.9461300969123840e-01],
"split_indices":[7,4,11,0,19,23,18,0,0,0,0,0,0],
"split_type":[0,0,0,0,0,0,0,0,0,0,0,0,0],
"sum_hessian":[0.0,0.0,0.0,0.0,0.0,0.0,0.0,0.0,0.0,0.0,0.0,0.0,0.0],
"tree_param":{"num_deleted":"0","num_feature":"27","num_nodes":"13","size_leaf_vector":"0"}
},
{
"base_weights":[0.0,0.0,0.0,0.0,0.0,0.0,0.0,0.0,0.0,0.0,0.0,0.0,0.0,0.0,0.0],
"categories":[],"categories_nodes":[],"categories_segments":[],"categories_sizes":[],
"default_left":[true,true,true,true,true,true,true,false,false,false,false,false,false,false,false],
"id":2,
"left_children":[1,3,5,7,9,11,13,-1,-1,-1,-1,-1,-1,-1,-1],
"loss_changes":[0.0,0.0,0.0,0.0,0.0,0.0,0.0,0.0,0.0,0.0,0.0,0.0,0.0,0.0,0.0],
"parents":[2147483647,0,0,1,1,2,2,3,3,4,4,5,5,6,6],
"right_children":[2,4,6,8,10,12,14,-1,-1,-1,-1,-1,-1,-1,-1],
"split_conditions":[2.0253691673278809e+00,7.4801373481750488e-01,2.6928398609161377e+00,8.9431273937225342e-01,1.1409996795654297e+02,4.0843376159667969e+01,2.7579293251037598e+00,1.7089097201824188e-01,-1.2045789510011673e-01,2.1131834387779236e-01,1.7644993960857391e-02,-1.9687615334987640e-01,-2.0049691200256348e-01,5.2630663849413395e-03,-1.2347456812858582e-01],
"split_indices":[7,4,2,7,12,23,9,0,0,0,0,0,0,0,0],
"split_type":[0,0,0,0,0,0,0,0,0,0,0,0,0,0,0],
"sum_hessian":[0.0,0.0,0.0,0.0,0.0,0.0,0.0,0.0,0.0,0.0,0.0,0.0,0.0,0.0,0.0],
"tree_param":{"num_deleted":"0","num_feature":"27","num_nodes":"15","size_leaf_vector":"0"}
},
{
"base_weights":[0.0,0.0,0.0,0.0,0.0,0.0,0.0,0.0,0.0,0.0,0.0],
"categories":[],"categories_nodes":[],"categories_segments":[],"categories_sizes":[],
"default_left":[true,true,true,true,false,false,true,false,false,false,false],
"id":3,
"left_children":[1,3,5,7,-1,-1,9,-1,-1,-1,-1],
"loss_changes":[0.0,0.0,0.0,0.0,0.0,0.0,0.0,0.0,0.0,0.0,0.0],
"parents":[2147483647,0,0,1,1,2,2,3,3,6,6],
"right_children":[2,4,6,8,-1,-1,10,-1,-1,-1,-1],
"split_conditions":[2.2727825641632080e+00,6.1205410003662109e+01,1.2513603210449219e+01,5.8988239288330078e+01,-1.3902136683464050e-01,-1.7947725951671600e-01,2.8424513339996338e+00,5.1098233088850975e-03,1.8973487615585327e-01,-1.0329605638980865e-01,4.3259646743535995e-02],
"split_indices":[7,0,11,23,0,0,2,0,0,0,0],
"split_type":[0,0,0,0,0,0,0,0,0,0,0],
"sum_hessian":[0.0,0.0,0.0,0.0,0.0,0.0,0.0,0.0,0.0,0.0,0.0],
"tree_param":{"num_deleted":"0","num_feature":"27","num_nodes":"11","size_leaf_vector":"0"}
},
{
"base_weights":[0.0,0.0,0.0,0.0,0.0,0.0,0.0,0.0,0.0],
"categories":[],"categories_nodes":[],"categories_segments":[],"categories_sizes":[],
"default_left":[true,true,false,true,true,false,false,false,false],
"id":4,
"left_children":[1,3,-1,5,7,-1,-1,-1,-1],
"loss_changes":[0.0,0.0,0.0,0.0,0.0,0.0,0.0,0.0,0.0],
"parents":[2147483647,0,0,1,1,3,3,4,4],
"right_children":[2,4,-1,6,8,-1,-1,-1,-1],
"split_conditions":[1.2253013610839844e+02,1.7306989669799805e+01,-2.3052804172039032e-01,9.7236067056655884e-01,3.4881835937500000e+02,1.1969868093729019e-01,-8.4891147911548615e-02,1.2617214024066925e-01,-1.0861227661371231e-01],
"split_indices":[23,11,0,7,1,0,0,0,0],
"split_type":[0,0,0,0,0,0,0,0,0],
"sum_hessian":[0.0,0.0,0.0,0.0,0.0,0.0,0.0,0.0,0.0],
"tree_param":{"num_deleted":"0","num_feature":"27","num_nodes":"9","size_leaf_vector":"0"}
},
{
"base_weights":[0.0,0.0,0.0,0.0,0.0,0.0,0.0,0.0,0.0,0.0,0.0,0.0,0.0],
"categories":[],"categories_nodes":[],"categories_segments":[],"categories_sizes":[],
"default_left":[true,true,true,true,true,false,true,false,false,false,false,false,false],
"id":5,
"left_children":[1,3,5,7,9,-1,11,-1,-1,-1,-1,-1,-1],
"loss_changes":[0.0,0.0,0.0,0.0,0.0,0.0,0.0,0.0,0.0,0.0,0.0,0.0,0.0],
"parents":[2147483647,0,0,1,1,2,2,3,3,4,4,6,6],
"right_children":[2,4,6,8,10,-1,12,-1,-1,-1,-1,-1,-1],
"split_conditions":[4.2857143282890320e-01,4.0843376159667969e+01,7.8830218315124512e-01,1.8309967517852783e+00,2.5432562828063965e+00,7.6283782720565796e-02,3.0946722412109375e+02,7.2650857269763947e-02,-6.2710948288440704e-02,-2.7044558897614479e-02,1.5471637248992920e-01,-4.4983465224504471e-02,-1.5482980012893677e-01],
"split_indices":[19,23,7,8,2,0,14,0,0,0,0,0,0],
"split_type":[0,0,0,0,0,0,0,0,0,0,0,0,0],
"sum_hessian":[0.0,0.0,0.0,0.0,0.0,0.0,0.0,0.0,0.0,0.0,0.0,0.0,0.0],
"tree_param":{"num_deleted":"0","num_feature":"27","num_nodes":"13","size_leaf_vector":"0"}
},
{
"base_weights":[0.0,0.0,0.0,0.0,0.0,0.0,0.0,0.0,0.0,0.0,0.0],
"categories":[],"categories_nodes":[],"categories_segments":[],"categories_sizes":[],
"default_left":[true,true,true,false,true,true,false,false,false,false,false],
"id":6,
"left_children":[1,3,5,-1,7,9,-1,-1,-1,-1,-1],
"loss_changes":[0.0,0.0,0.0,0.0,0.0,0.0,0.0,0.0,0.0,0.0,0.0],
"parents":[2147483647,0,0,1,1,2,2,4,4,5,5],
"right_children":[2,4,6,-1,8,10,-1,-1,-1,-1,-1],
"split_conditions":[5.9839689731597900e-01,7.6835000514984131e-01,1.0557929992675781e+02,4.3515700846910477e-02,2.8337061405181885e+00,2.2441816329956055e+01,-1.3770942389965057e-01,-5.1794417202472687e-02,-1.2240055948495865e-01,-5.8368265628814697e-02,1.0000175982713699e-01],
"split_indices":[6,7,21,0,9,23,0,0,0,0,0],
"split_type":[0,0,0,0,0,0,0,0,0,0,0],
"sum_hessian":[0.0,0.0,0.0,0.0,0.0,0.0,0.0,0.0,0.0,0.0,0.0],
"tree_param":{"num_deleted":"0","num_feature":"27","num_nodes":"11","size_leaf_vector":"0"}
},
{
"base_weights":[0.0,0.0,0.0,0.0,0.0,0.0,0.0,0.0,0.0,0.0,0.0],
"categories":[],"categories_nodes":[],"categories_segments":[],"categories_sizes":[],
"default_left":[true,true,true,true,true,false,false,false,false,false,false],
"id":7,
"left_children":[1,3,5,7,9,-1,-1,-1,-1,-1,-1],
"loss_changes":[0.0,0.0,0.0,0.0,0.0,0.0,0.0,0.0,0.0,0.0,0.0],
"parents":[2147483647,0,0,1,1,2,2,3,3,4,4],
"right_children":[2,4,6,8,10,-1,-1,-1,-1,-1,-1],
"split_conditions":[3.5407983398437500e+02,2.2440021038055420e+00,4.2858839035034180e-01,1.7253940105438232e+00,1.3141427040100098e+01,-4.6478871256113052e-02,-1.4708539843559265e-01,4.4368743896484375e-02,-5.7766199111938477e-02,-3.6837421357631683e-02,6.3139751553535461e-02],
"split_indices":[1,2,20,8,22,0,0,0,0,0,0],
"split_type":[0,0,0,0,0,0,0,0,0,0,0],
"sum_hessian":[0.0,0.0,0.0,0.0,0.0,0.0,0.0,0.0,0.0,0.0,0.0],
"tree_param":{"num_deleted":"0","num_feature":"27","num_nodes":"11","size_leaf_vector":"0"}
},
{
"base_weights":[0.0,0.0,0.0,0.0,0.0,0.0,0.0,0.0,0.0],
"categories":[],"categories_nodes":[],"categories_segments":[],"categories_sizes":[],
"default_left":[true,false,true,true,true,false,false,false,false],
"id":8,
"left_children":[1,-1,3,5,7,-1,-1,-1,-1],
"loss_changes":[0.0,0.0,0.0,0.0,0.0,0.0,0.0,0.0,0.0],
"parents":[2147483647,0,0,2,2,3,3,4,4],
"right_children":[2,-1,4,6,8,-1,-1,-1,-1],
"split_conditions":[5.4088872671127319e-01,1.4992554485797882e-01,2.8854260253906250e+02,5.7758312225341797e+01,9.8859137296676636e-01,-1.1167384684085846e-02,5.5898219347000122e-02,-2.2232444956898689e-02,-1.3298201560974121e-01],
"split_indices":[7,0,1,23,7,0,0,0,0],
"split_type":[0,0,0,0,0,0,0,0,0],
"sum_hessian":[0.0,0.0,0.0,0.0,0.0,0.0,0.0,0.0,0.0],
"tree_param":{"num_deleted":"0","num_feature":"27","num_nodes":"9","size_leaf_vector":"0"}
},
{
"base_weights":[0.0,0.0,0.0,0.0,0.0,0.0,0.0,0.0,0.0,0.0,0.0],
"categories":[],"categories_nodes":[],"categories_segments":[],"categories_sizes":[],
"default_left":[true,true,true,true,true,false,false,false,false,false,false],
"id":9,
"left_children":[1,3,5,7,9,-1,-1,-1,-1,-1,-1],
"loss_changes":[0.0,0.0,0.0,0.0,0.0,0.0,0.0,0.0,0.0,0.0,0.0],
"parents":[2147483647,0,0,1,1,2,2,3,3,4,4],
"right_children":[2,4,6,8,10,-1,-1,-1,-1,-1,-1],
"split_conditions":[1.2857142686843872e+00,3.2387788295745850e+00,6.7328926086425781e+01,4.4064987182617188e+01,1.6456495523452759e+00,-3.6628108471632004e-02,-1.3713988661766052e-01,1.3410556130111217e-02,7.8300967812538147e-02,-7.4178479611873627e-02,-1.8865557387471199e-02],
"split_indices":[19,9,23,16,6,0,0,0,0,0,0],
"split_type":[0,0,0,0,0,0,0,0,0,0,0],
"sum_hessian":[0.0,0.0,0.0,0.0,0.0,0.0,0.0,0.0,0.0,0.0,0.0],
"tree_param":{"num_deleted":"0","num_feature":"27","num_nodes":"11","size_leaf_vector":"0"}
},
{
"base_weights":[0.0,0.0,0.0,0.0,0.0,0.0,0.0],
"categories":[],"categories_nodes":[],"categories_segments":[],"categories_sizes":[],
"default_left":[true,true,false,true,false,false,false],
"id":10,
"left_children":[1,3,-1,5,-1,-1,-1],
"loss_changes":[0.0,0.0,0.0,0.0,0.0,0.0,0.0],
"parents":[2147483647,0,0,1,1,3,3],
"right_children":[2,4,-1,6,-1,-1,-1],
"split_conditions":[1.3099011230468750e+02,7.4296760559082031e+01,-8.0262720584869385e-02,1.9057435989379883e+00,-9.0259470045566559e-02,7.7713809907436371e-02,-1.1175489984452724e-02],
"split_indices":[10,0,0,8,0,0,0],
"split_type":[0,0,0,0,0,0,0],
"sum_hessian":[0.0,0.0,0.0,0.0,0.0,0.0,0.0],
"tree_param":{"num_deleted":"0","num_feature":"27","num_nodes":"7","size_leaf_vector":"0"}
},
{
"base_weights":[0.0,0.0,0.0,0.0,0.0,0.0,0.0],
"categories":[],"categories_nodes":[],"categories_segments":[],"categories_sizes":[],
"default_left":[true,false,true,true,false,false,false],
"id":11,
"left_children":[1,-1,3,5,-1,-1,-1],
"loss_changes":[0.0,0.0,0.0,0.0,0.0,0.0,0.0],
"parents":[2147483647,0,0,2,2,3,3],
"right_children":[2,-1,4,6,-1,-1,-1],
"split_conditions":[1.4963001012802124e-01,-7.2263389825820923e-02,1.2282057952880859e+02,2.5206050872802734e+00,-7.5481019914150238e-02,3.9253525435924530e-02,-3.7017237395048141e-02],
"split_indices":[4,0,23,7,0,0,0],
"split_type":[0,0,0,0,0,0,0],
"sum_hessian":[0.0,0.0,0.0,0.0,0.0,0.0,0.0],
"tree_param":{"num_deleted":"0","num_feature":"27","num_nodes":"7","size_leaf_vector":"0"}
},
{
"base_weights":[0.0,0.0,0.0,0.0,0.0,0.0,0.0,0.0,0.0,0.0,0.0],
"categories":[],"categories_nodes":[],"categories_segments":[],"categories_sizes":[],
"default_left":[true,true,true,false,false,true,true,false,false,false,false],
"id":12,
"left_children":[1,3,5,-1,-1,7,9,-1,-1,-1,-1],
"loss_changes":[0.0,0.0,0.0,0.0,0.0,0.0,0.0,0.0,0.0,0.0,0.0],
"parents":[2147483647,0,0,1,1,2,2,5,5,6,6],
"right_children":[2,4,6,-1,-1,8,10,-1,-1,-1,-1],
"split_conditions":[2.9919844865798950e-01,4.6035491943359375e+01,7.5629109144210815e-01,6.9912918843328953e-03,-9.4727270305156708e-02,2.4715143203735352e+01,9.9924598693847656e+01,3.5769972018897533e-03,7.6060190796852112e-02,1.7523842689115554e-04,-7.9634591937065125e-02],
"split_indices":[6,21,25,0,0,11,23,0,0,0,0],
"split_type":[0,0,0,0,0,0,0,0,0,0,0],
"sum_hessian":[0.0,0.0,0.0,0.0,0.0,0.0,0.0,0.0,0.0,0.0,0.0],
"tree_param":{"num_deleted":"0","num_feature":"27","num_nodes":"11","size_leaf_vector":"0"}
},
{
"base_weights":[0.0,0.0,0.0,0.0,0.0,0.0,0.0,0.0,0.0],
"categories":[],"categories_nodes":[],"categories_segments":[],"categories_sizes":[],
"default_left":[true,false,true,true,true,false,false,false,false],
"id":13,
"left_children":[1,-1,3,5,7,-1,-1,-1,-1],
"loss_changes":[0.0,0.0,0.0,0.0,0.0,0.0,0.0,0.0,0.0],
"parents":[2147483647,0,0,2,2,3,3,4,4],
"right_children":[2,-1,4,6,8,-1,-1,-1,-1],
"split_conditions":[5.4088872671127319e-01,9.3040607869625092e-02,1.2680512237548828e+02,1.3464137315750122e+00,1.0549317932128906e+02,-4.7498866915702820e-02,1.2851543724536896e-02,-5.5676214396953583e-02,-5.1538143306970596e-02],
"split_indices":[7,0,15,2,10,0,0,0,0],
"split_type":[0,0,0,0,0,0,0,0,0],
"sum_hessian":[0.0,0.0,0.0,0.0,0.0,0.0,0.0,0.0,0.0],
"tree_param":{"num_deleted":"0","num_feature":"27","num_nodes":"9","size_leaf_vector":"0"}
},
{
"base_weights":[0.0,0.0,0.0,0.0,0.0,0.0,0.0,0.0,0.0,0.0,0.0],
"categories":[],"categories_nodes":[],"categories_segments":[],"categories_sizes":[],
"default_left":[true,true,true,false,false,true,true,false,false,false,false],
"id":14,
"left_children":[1,3,5,-1,-1,7,9,-1,-1,-1,-1],
"loss_changes":[0.0,0.0,0.0,0.0,0.0,0.0,0.0,0.0,0.0,0.0,0.0],
"parents":[2147483647,0,0,1,1,2,2,5,5,6,6],
"right_children":[2,4,6,-1,-1,8,10,-1,-1,-1,-1],
"split_conditions":[2.9922798275947571e-01,2.3367746174335480e-01,1.0412063598632812e+00,-1.4653767459094524e-02,-4.7471880912780762e-02,5.2952846527099609e+01,4.9737274169921875e+01,1.3475610315799713e-01,1.8995039165019989e-02,8.1745740026235580e-03,-8.7025381624698639e-02],
"split_indices":[4,5,7,0,0,12,11,0,0,0,0],
"split_type":[0,0,0,0,0,0,0,0,0,0,0],
"sum_hessian":[0.0,0.0,0.0,0.0,0.0,0.0,0.0,0.0,0.0,0.0,0.0],
"tree_param":{"num_deleted":"0","num_feature":"27","num_nodes":"11","size_leaf_vector":"0"}
},
{
"base_weights":[0.0,0.0,0.0,0.0,0.0,0.0,0.0,0.0,0.0,0.0,0.0],
"categories":[],"categories_nodes":[],"categories_segments":[],"categories_sizes":[],
"default_left":[true,true,true,true,true,false,false,false,false,false,false],
"id":15,
"left_children":[1,3,5,7,9,-1,-1,-1,-1,-1,-1],
"loss_changes":[0.0,0.0,0.0,0.0,0.0,0.0,0.0,0.0,0.0,0.0,0.0],
"parents":[2147483647,0,0,1,1,2,2,3,3,4,4],
"right_children":[2,4,6,8,10,-1,-1,-1,-1,-1,-1],
"split_conditions":[3.2374150753021240e+00,2.9919939041137695e+00,1.7952430248260498e+00,9.4892959594726562e+01,2.8814851760864258e+01,-5.5004399269819260e-02,-1.7623892927076668e-04,1.4666693285107613e-02,-6.1089869588613510e-02,-2.4207942187786102e-03,7.4463889002799988e-02],
"split_indices":[9,2,6,10,22,0,0,0,0,0,0],
"split_type":[0,0,0,0,0,0,0,0,0,0,0],
"sum_hessian":[0.0,0.0,0.0,0.0,0.0,0.0,0.0,0.0,0.0,0.0,0.0],
"tree_param":{"num_deleted":"0","num_feature":"27","num_nodes":"11","size_leaf_vector":"0"}
},
{
"base_weights":[0.0,0.0,0.0,0.0,0.0,0.0,0.0,0.0,0.0,0.0,0.0,0.0,0.0],
"categories":[],"categories_nodes":[],"categories_segments":[],"categories_sizes":[],
"default_left":[true,true,true,true,false,true,true,false,false,false,false,false,false],
"id":16,
"left_children":[1,3,5,7,-1,9,11,-1,-1,-1,-1,-1,-1],
"loss_changes":[0.0,0.0,0.0,0.0,0.0,0.0,0.0,0.0,0.0,0.0,0.0,0.0,0.0],
"parents":[2147483647,0,0,1,1,2,2,3,3,5,5,6,6],
"right_children":[2,4,6,8,-1,10,12,-1,-1,-1,-1,-1,-1],
"split_conditions":[1.2306411266326904e+00,4.7027990722656250e+02,1.6456097364425659e+00,7.4790030717849731e-01,-1.3342763297259808e-02,2.7030054092407227e+01,1.9142593145370483e+00,1.0059518367052078e-01,3.3511918038129807e-02,4.3459977954626083e-02,-4.5817028731107712e-02,-5.3648903965950012e-02,4.1386935859918594e-02],
"split_indices":[8,14,4,4,0,10,8,0,0,0,0,0,0],
"split_type":[0,0,0,0,0,0,0,0,0,0,0,0,0],
"sum_hessian":[0.0,0.0,0.0,0.0,0.0,0.0,0.0,0.0,0.0,0.0,0.0,0.0,0.0],
"tree_param":{"num_deleted":"0","num_feature":"27","num_nodes":"13","size_leaf_vector":"0"}
},
{
"base_weights":[0.0,0.0,0.0,0.0,0.0,0.0,0.0,0.0,0.0,0.0,0.0],
"categories":[],"categories_nodes":[],"categories_segments":[],"categories_sizes":[],
"default_left":[true,true,true,true,false,false,true,false,false,false,false],
"id":17,
"left_children":[1,3,5,7,-1,-1,9,-1,-1,-1,-1],
"loss_changes":[0.0,0.0,0.0,0.0,0.0,0.0,0.0,0.0,0.0,0.0,0.0],
"parents":[2147483647,0,0,1,1,2,2,3,3,6,6],
"right_children":[2,4,6,8,-1,-1,10,-1,-1,-1,-1],
"split_conditions":[2.5764899253845215e+00,1.2253013610839844e+02,2.4977783203125000e+01,3.5835353851318359e+01,-5.7438861578702927e-02,-1.0293488949537277e-01,6.3615577697753906e+01,2.7231322601437569e-02,-2.5026544928550720e-02,4.9511753022670746e-02,-4.7480657696723938e-02],
"split_indices":[8,23,12,18,0,0,15,0,0,0,0],
"split_type":[0,0,0,0,0,0,0,0,0,0,0],
"sum_hessian":[0.0,0.0,0.0,0.0,0.0,0.0,0.0,0.0,0.0,0.0,0.0],
"tree_param":{"num_deleted":"0","num_feature":"27","num_nodes":"11","size_leaf_vector":"0"}
},
{
"base_weights":[0.0,0.0,0.0,0.0,0.0,0.0,0.0,0.0,0.0,0.0,0.0],
"categories":[],"categories_nodes":[],"categories_segments":[],"categories_sizes":[],
"default_left":[true,true,true,false,true,true,false,false,false,false,false],
"id":18,
"left_children":[1,3,5,-1,7,9,-1,-1,-1,-1,-1],
"loss_changes":[0.0,0.0,0.0,0.0,0.0,0.0,0.0,0.0,0.0,0.0,0.0],
"parents":[2147483647,0,0,1,1,2,2,4,4,5,5],
"right_children":[2,4,6,-1,8,10,-1,-1,-1,-1,-1],
"split_conditions":[1.3463987112045288e+00,4.7623077392578125e+01,1.0013243865966797e+02,-1.6811566427350044e-02,8.6763526916503906e+01,5.7214286804199219e+01,-6.0701157897710800e-02,6.0078646987676620e-02,9.4132736325263977e-02,8.5326908156275749e-03,-4.5656766742467880e-02],
"split_indices":[3,17,13,0,21,13,0,0,0,0,0],
"split_type":[0,0,0,0,0,0,0,0,0,0,0],
"sum_hessian":[0.0,0.0,0.0,0.0,0.0,0.0,0.0,0.0,0.0,0.0,0.0],
"tree_param":{"num_deleted":"0","num_feature":"27","num_nodes":"11","size_leaf_vector":"0"}
},
{
"base_weights":[0.0,0.0,0.0,0.0,0.0,0.0,0.0,0.0,0.0,0.0,0.0],
"categories":[],"categories_nodes":[],"categories_segments":[],"categories_sizes":[],
"default_left":[true,true,true,false,false,true,true,false,false,false,false],
"id":19,
"left_children":[1,3,5,-1,-1,7,9,-1,-1,-1,-1],
"loss_changes":[0.0,0.0,0.0,0.0,0.0,0.0,0.0,0.0,0.0,0.0,0.0],
"parents":[2147483647,0,0,1,1,2,2,5,5,6,6],
"right_children":[2,4,6,-1,-1,8,10,-1,-1,-1,-1],
"split_conditions":[2.0262885093688965e+00,2.9613351821899414e+01,1.4386091232299805e+00,6.7760974168777466e-02,1.3953840360045433e-02,2.5655941772460938e+02,1.0471946001052856e+00,6.5312452614307404e-02,6.2949764542281628e-03,-4.2905956506729126e-02,9.4527140026912093e-04],
"split_indices":[9,16,8,0,0,1,6,0,0,0,0],
"split_type":[0,0,0,0,0,0,0,0,0,0,0],
"sum_hessian":[0.0,0.0,0.0,0.0,0.0,0.0,0.0,0.0,0.0,0.0,0.0],
"tree_param":{"num_deleted":"0","num_feature":"27","num_nodes":"11","size_leaf_vector":"0"}
},
{
"base_weights":[0.0,0.0,0.0,0.0,0.0,0.0,0.0,0.0,0.0,0.0,0.0],
"categories":[],"categories_nodes":[],"categories_segments":[],"categories_sizes":[],
"default_left":[true,true,true,true,false,true,false,false,false,false,false],
"id":20,
"left_children":[1,3,5,7,-1,9,-1,-1,-1,-1,-1],
"loss_changes":[0.0,0.0,0.0,0.0,0.0,0.0,0.0,0.0,0.0,0.0,0.0],
"parents":[2147483647,0,0,1,1,2,2,3,3,5,5],
"right_children":[2,4,6,8,-1,10,-1,-1,-1,-1,-1],
"split_conditions":[7.8830218315124512e-01,6.5658432006835938e+01,2.8854260253906250e+02,1.4959425926208496e+00,-3.1589262187480927e-02,4.9840248107910156e+01,-3.4792300313711166e-02,1.6411362588405609e-01,7.1758612990379333e-02,-1.3505381532013416e-02,3.5137776285409927e-02],
"split_indices":[7,10,1,6,0,22,0,0,0,0,0],
"split_type":[0,0,0,0,0,0,0,0,0,0,0],
"sum_hessian":[0.0,0.0,0.0,0.0,0.0,0.0,0.0,0.0,0.0,0.0,0.0],
"tree_param":{"num_deleted":"0","num_feature":"27","num_nodes":"11","size_leaf_vector":"0"}
},
{
"base_weights":[0.0,0.0,0.0,0.0,0.0,0.0,0.0,0.0,0.0],
"categories":[],"categories_nodes":[],"categories_segments":[],"categories_sizes":[],
"default_left":[true,false,true,true,true,false,false,false,false],
"id":21,
"left_children":[1,-1,3,5,7,-1,-1,-1,-1],
"loss_changes":[0.0,0.0,0.0,0.0,0.0,0.0,0.0,0.0,0.0],
"parents":[2147483647,0,0,2,2,3,3,4,4],
"right_children":[2,-1,4,6,8,-1,-1,-1,-1],
"split_conditions":[7.8202491998672485e-01,4.7604385763406754e-02,5.7953811645507812e+01,7.0825592041015625e+01,3.1271558761596680e+01,-2.5000533089041710e-02,3.0448684468865395e-02,1.3370020687580109e-01,-6.6971848718822002e-03],
"split_indices":[8,0,17,21,12,0,0,0,0],
"split_type":[0,0,0,0,0,0,0,0,0],
"sum_hessian":[0.0,0.0,0.0,0.0,0.0,0.0,0.0,0.0,0.0],
"tree_param":{"num_deleted":"0","num_feature":"27","num_nodes":"9","size_leaf_vector":"0"}
},
{
"base_weights":[0.0,0.0,0.0,0.0,0.0,0.0,0.0],
"categories":[],"categories_nodes":[],"categories_segments":[],"categories_sizes":[],
"default_left":[true,false,true,true,false,false,false],
"id":22,
"left_children":[1,-1,3,5,-1,-1,-1],
"loss_changes":[0.0,0.0,0.0,0.0,0.0,0.0,0.0],
"parents":[2147483647,0,0,2,2,3,3],
"right_children":[2,-1,4,6,-1,-1,-1],
"split_conditions":[1.4959922432899475e-01,-3.3531591296195984e-02,7.4296760559082031e+01,1.6693663597106934e+00,-6.2974974513053894e-02,5.3172990679740906e-02,-4.9558449536561966e-03],
"split_indices":[5,0,0,8,0,0,0],
"split_type":[0,0,0,0,0,0,0],
"sum_hessian":[0.0,0.0,0.0,0.0,0.0,0.0,0.0],
"tree_param":{"num_deleted":"0","num_feature":"27","num_nodes":"7","size_leaf_vector":"0"}
},
{
"base_weights":[0.0,0.0,0.0,0.0,0.0,0.0,0.0,0.0,0.0,0.0,0.0],
"categories":[],"categories_nodes":[],"categories_segments":[],"categories_sizes":[],
"default_left":[true,true,true,true,true,false,false,false,false,false,false],
"id":23,
"left_children":[1,3,5,7,9,-1,-1,-1,-1,-1,-1],
"loss_changes":[0.0,0.0,0.0,0.0,0.0,0.0,0.0,0.0,0.0,0.0,0.0],
"parents":[2147483647,0,0,1,1,2,2,3,3,4,4],
"right_children":[2,4,6,8,10,-1,-1,-1,-1,-1,-1],
"split_conditions":[3.5407983398437500e+02,4.7373477935791016e+01,2.4921493530273438e+01,8.9759534597396851e-01,9.3754333496093750e+01,-5.4860845208168030e-02,-1.5163916163146496e-02,-4.3118312954902649e-02,1.7715469002723694e-02,3.7150148302316666e-02,-5.7386089116334915e-02],
"split_indices":[1,0,11,6,23,0,0,0,0,0,0],
"split_type":[0,0,0,0,0,0,0,0,0,0,0],
"sum_hessian":[0.0,0.0,0.0,0.0,0.0,0.0,0.0,0.0,0.0,0.0,0.0],
"tree_param":{"num_deleted":"0","num_feature":"27","num_nodes":"11","size_leaf_vector":"0"}
},
{
"base_weights":[0.0,0.0,0.0,0.0,0.0,0.0,0.0,0.0,0.0,0.0,0.0,0.0,0.0,0.0,0.0],
"categories":[],"categories_nodes":[],"categories_segments":[],"categories_sizes":[],
"default_left":[true,true,true,true,true,true,true,false,false,false,false,false,false,false,false],
"id":24,
"left_children":[1,3,5,7,9,11,13,-1,-1,-1,-1,-1,-1,-1,-1],
"loss_changes":[0.0,0.0,0.0,0.0,0.0,0.0,0.0,0.0,0.0,0.0,0.0,0.0,0.0,0.0,0.0],
"parents":[2147483647,0,0,1,1,2,2,3,3,4,4,5,5,6,6],
"right_children":[2,4,6,8,10,12,14,-1,-1,-1,-1,-1,-1,-1,-1],
"split_conditions":[5.7953811645507812e+01,4.7619044780731201e-01,1.7951906919479370e+00,2.2509796142578125e+01,1.7951906919479370e+00,2.0027256011962891e+00,2.4363813400268555e+00,-2.4549173191189766e-02,2.2258583456277847e-02,-5.1863528788089752e-02,9.9322758615016937e-03,1.5532103367149830e-02,8.1806756556034088e-02,-3.4102860838174820e-02,-4.8149012029170990e-02],
"split_indices":[17,20,6,23,6,8,6,0,0,0,0,0,0,0,0],
"split_type":[0,0,0,0,0,0,0,0,0,0,0,0,0,0,0],
"sum_hessian":[0.0,0.0,0.0,0.0,0.0,0.0,0.0,0.0,0.0,0.0,0.0,0.0,0.0,0.0,0.0],
"tree_param":{"num_deleted":"0","num_feature":"27","num_nodes":"15","size_leaf_vector":"0"}
},
{
"base_weights":[0.0,0.0,0.0,0.0,0.0,0.0,0.0,0.0,0.0,0.0,0.0],
"categories":[],"categories_nodes":[],"categories_segments":[],"categories_sizes":[],
"default_left":[true,true,true,true,true,false,false,false,false,false,false],
"id":25,
"left_children":[1,3,5,7,9,-1,-1,-1,-1,-1,-1],
"loss_changes":[0.0,0.0,0.0,0.0,0.0,0.0,0.0,0.0,0.0,0.0,0.0],
"parents":[2147483647,0,0,1,1,2,2,3,3,4,4],
"right_children":[2,4,6,8,10,-1,-1,-1,-1,-1,-1],
"split_conditions":[4.9737274169921875e+01,8.0881591796875000e+01,5.9781990051269531e+01,6.1647483825683594e+01,3.0829927444458008e+01,4.8615880310535431e-02,-9.3078054487705231e-02,-1.3430943712592125e-02,4.5891590416431427e-02,9.5810510218143463e-02,2.5781234726309776e-02],
"split_indices":[11,21,11,22,11,0,0,0,0,0,0],
"split_type":[0,0,0,0,0,0,0,0,0,0,0],
"sum_hessian":[0.0,0.0,0.0,0.0,0.0,0.0,0.0,0.0,0.0,0.0,0.0],
"tree_param":{"num_deleted":"0","num_feature":"27","num_nodes":"11","size_leaf_vector":"0"}
},
{
"base_weights":[0.0,0.0,0.0,0.0,0.0,0.0,0.0,0.0,0.0,0.0,0.0,0.0,0.0,0.0,0.0],
"categories":[],"categories_nodes":[],"categories_segments":[],"categories_sizes":[],
"default_left":[true,true,true,true,true,true,true,false,false,false,false,false,false,false,false],
"id":26,
"left_children":[1,3,5,7,9,11,13,-1,-1,-1,-1,-1,-1,-1,-1],
"loss_changes":[0.0,0.0,0.0,0.0,0.0,0.0,0.0,0.0,0.0,0.0,0.0,0.0,0.0,0.0,0.0],
"parents":[2147483647,0,0,1,1,2,2,3,3,4,4,5,5,6,6],
"right_children":[2,4,6,8,10,12,14,-1,-1,-1,-1,-1,-1,-1,-1],
"split_conditions":[4.0843376159667969e+01,8.5991077423095703e+00,2.8423943519592285e+00,4.6599407196044922e+01,1.4784110784530640e+00,1.8838064372539520e-01,4.9324573516845703e+01,1.5772702172398567e-02,9.5036990940570831e-02,-5.7461917400360107e-02,2.0096089690923691e-02,-6.9608509540557861e-02,-1.1932973749935627e-02,3.8021255284547806e-02,-3.3742714673280716e-02],
"split_indices":[23,11,2,17,7,26,11,0,0,0,0,0,0,0,0],
"split_type":[0,0,0,0,0,0,0,0,0,0,0,0,0,0,0],
"sum_hessian":[0.0,0.0,0.0,0.0,0.0,0.0,0.0,0.0,0.0,0.0,0.0,0.0,0.0,0.0,0.0],
"tree_param":{"num_deleted":"0","num_feature":"27","num_nodes":"15","size_leaf_vector":"0"}
},
{
"base_weights":[0.0,0.0,0.0,0.0,0.0,0.0,0.0,0.0,0.0],
"categories":[],"categories_nodes":[],"categories_segments":[],"categories_sizes":[],
"default_left":[true,false,true,true,true,false,false,false,false],
"id":27,
"left_children":[1,-1,3,5,7,-1,-1,-1,-1],
"loss_changes":[0.0,0.0,0.0,0.0,0.0,0.0,0.0,0.0,0.0],
"parents":[2147483647,0,0,2,2,3,3,4,4],
"right_children":[2,-1,4,6,8,-1,-1,-1,-1],
"split_conditions":[1.4959922432899475e-01,-3.2758295536041260e-02,2.2605676651000977e+00,5.2758729457855225e-01,2.0870962142944336e+00,8.9144662022590637e-02,3.6204236093908548e-03,-2.8215089696459472e-04,-5.9365153312683105e-02],
"split_indices":[6,0,26,7,25,0,0,0,0],
"split_type":[0,0,0,0,0,0,0,0,0],
"sum_hessian":[0.0,0.0,0.0,0.0,0.0,0.0,0.0,0.0,0.0],
"tree_param":{"num_deleted":"0","num_feature":"27","num_nodes":"9","size_leaf_vector":"0"}
},
{
"base_weights":[0.0,0.0,0.0,0.0,0.0,0.0,0.0],
"categories":[],"categories_nodes":[],"categories_segments":[],"categories_sizes":[],
"default_left":[true,false,true,true,false,false,false],
"id":28,
"left_children":[1,-1,3,5,-1,-1,-1],
"loss_changes":[0.0,0.0,0.0,0.0,0.0,0.0,0.0],
"parents":[2147483647,0,0,2,2,3,3],
"right_children":[2,-1,4,6,-1,-1,-1],
"split_conditions":[1.4959922432899475e-01,-2.4746311828494072e-02,7.4296760559082031e+01,1.2275071144104004e+00,-4.2109828442335129e-02,5.9635117650032043e-02,-3.5312055842950940e-05],
"split_indices":[5,0,0,8,0,0,0],
"split_type":[0,0,0,0,0,0,0],
"sum_hessian":[0.0,0.0,0.0,0.0,0.0,0.0,0.0],
"tree_param":{"num_deleted":"0","num_feature":"27","num_nodes":"7","size_leaf_vector":"0"}
},
{
"base_weights":[0.0,0.0,0.0,0.0,0.0,0.0,0.0,0.0,0.0],
"categories":[],"categories_nodes":[],"categories_segments":[],"categories_sizes":[],
"default_left":[true,true,true,true,false,false,false,false,false],
"id":29,
"left_children":[1,3,5,7,-1,-1,-1,-1,-1],
"loss_changes":[0.0,0.0,0.0,0.0,0.0,0.0,0.0,0.0,0.0],
"parents":[2147483647,0,0,1,1,2,2,3,3],
"right_children":[2,4,6,8,-1,-1,-1,-1,-1],
"split_conditions":[3.5407983398437500e+02,8.2853286743164062e+01,2.4921493530273438e+01,4.2315780639648438e+01,4.6575147658586502e-02,-4.9380607903003693e-02,-9.9062342196702957e-03,5.3026054054498672e-02,-4.0883994661271572e-03],
"split_indices":[1,17,11,15,0,0,0,0,0],
"split_type":[0,0,0,0,0,0,0,0,0],
"sum_hessian":[0.0,0.0,0.0,0.0,0.0,0.0,0.0,0.0,0.0],
"tree_param":{"num_deleted":"0","num_feature":"27","num_nodes":"9","size_leaf_vector":"0"}
},
{
"base_weights":[0.0,0.0,0.0,0.0,0.0,0.0,0.0],
"categories":[],"categories_nodes":[],"categories_segments":[],"categories_sizes":[],
"default_left":[true,false,true,true,false,false,false],
"id":30,
"left_children":[1,-1,3,5,-1,-1,-1],
"loss_changes":[0.0,0.0,0.0,0.0,0.0,0.0,0.0],
"parents":[2147483647,0,0,2,2,3,3],
"right_children":[2,-1,4,6,-1,-1,-1],
"split_conditions":[1.2188707590103149e+00,3.7208583205938339e-02,1.0013243865966797e+02,5.2446430206298828e+01,-2.5976054370403290e-02,8.3005176857113838e-03,-3.4480284899473190e-02],
"split_indices":[9,0,13,13,0,0,0],
"split_type":[0,0,0,0,0,0,0],
"sum_hessian":[0.0,0.0,0.0,0.0,0.0,0.0,0.0],
"tree_param":{"num_deleted":"0","num_feature":"27","num_nodes":"7","size_leaf_vector":"0"}
},
{
"base_weights":[0.0,0.0,0.0,0.0,0.0,0.0,0.0,0.0,0.0,0.0,0.0,0.0,0.0],
"categories":[],"categories_nodes":[],"categories_segments":[],"categories_sizes":[],
"default_left":[true,true,true,true,true,false,true,false,false,false,false,false,false],
"id":31,
"left_children":[1,3,5,7,9,-1,11,-1,-1,-1,-1,-1,-1],
"loss_changes":[0.0,0.0,0.0,0.0,0.0,0.0,0.0,0.0,0.0,0.0,0.0,0.0,0.0],
"parents":[2147483647,0,0,1,1,2,2,3,3,4,4,6,6],
"right_children":[2,4,6,8,10,-1,12,-1,-1,-1,-1,-1,-1],
"split_conditions":[5.7142835855484009e-01,2.2440016269683838e+00,1.0471946001052856e+00,9.0897970199584961e+00,1.5244940519332886e+00,-2.4602146819233894e-02,1.1344366073608398e+00,2.8033331036567688e-02,-1.1839699931442738e-02,1.6498245298862457e-02,5.0464615225791931e-02,1.4148931950330734e-02,-3.1095894053578377e-02],
"split_indices":[20,4,6,11,7,0,25,0,0,0,0,0,0],
"split_type":[0,0,0,0,0,0,0,0,0,0,0,0,0],
"sum_hessian":[0.0,0.0,0.0,0.0,0.0,0.0,0.0,0.0,0.0,0.0,0.0,0.0,0.0],
"tree_param":{"num_deleted":"0","num_feature":"27","num_nodes":"13","size_leaf_vector":"0"}
},
{
"base_weights":[0.0,0.0,0.0,0.0,0.0,0.0,0.0,0.0,0.0],
"categories":[],"categories_nodes":[],"categories_segments":[],"categories_sizes":[],
"default_left":[true,false,true,true,true,false,false,false,false],
"id":32,
"left_children":[1,-1,3,5,7,-1,-1,-1,-1],
"loss_changes":[0.0,0.0,0.0,0.0,0.0,0.0,0.0,0.0,0.0],
"parents":[2147483647,0,0,2,2,3,3,4,4],
"right_children":[2,-1,4,6,8,-1,-1,-1,-1],
"split_conditions":[7.8202491998672485e-01,3.6013156175613403e-02,9.3483322143554688e+01,9.6998153686523438e+01,1.5353871583938599e+00,-3.6130214575678110e-03,6.2729664146900177e-02,-5.7206053286790848e-02,2.0150849595665932e-02],
"split_indices":[8,0,12,21,7,0,0,0,0],
"split_type":[0,0,0,0,0,0,0,0,0],
"sum_hessian":[0.0,0.0,0.0,0.0,0.0,0.0,0.0,0.0,0.0],
"tree_param":{"num_deleted":"0","num_feature":"27","num_nodes":"9","size_leaf_vector":"0"}
},
{
"base_weights":[0.0,0.0,0.0,0.0,0.0,0.0,0.0,0.0,0.0,0.0,0.0,0.0,0.0,0.0,0.0],
"categories":[],"categories_nodes":[],"categories_segments":[],"categories_sizes":[],
"default_left":[true,true,true,true,true,true,true,false,false,false,false,false,false,false,false],
"id":33,
"left_children":[1,3,5,7,9,11,13,-1,-1,-1,-1,-1,-1,-1,-1],
"loss_changes":[0.0,0.0,0.0,0.0,0.0,0.0,0.0,0.0,0.0,0.0,0.0,0.0,0.0,0.0,0.0],
"parents":[2147483647,0,0,1,1,2,2,3,3,4,4,5,5,6,6],
"right_children":[2,4,6,8,10,12,14,-1,-1,-1,-1,-1,-1,-1,-1],
"split_conditions":[1.7779557704925537e+00,2.2768591308593750e+02,4.8993694305419922e+01,2.3263349533081055e+01,2.1894719600677490e+00,5.3408813476562500e+01,5.7547813415527344e+01,1.4368863403797150e-01,2.5352323427796364e-02,-1.6713360673747957e-04,-1.0219644010066986e-01,-9.4702139496803284e-02,-5.5471342056989670e-03,-1.8521336838603020e-02,5.6376781314611435e-02],
"split_indices":[7,14,12,11,8,0,10,0,0,0,0,0,0,0,0],
"split_type":[0,0,0,0,0,0,0,0,0,0,0,0,0,0,0],
"sum_hessian":[0.0,0.0,0.0,0.0,0.0,0.0,0.0,0.0,0.0,0.0,0.0,0.0,0.0,0.0,0.0],
"tree_param":{"num_deleted":"0","num_feature":"27","num_nodes":"15","size_leaf_vector":"0"}
},
{
"base_weights":[0.0,0.0,0.0,0.0,0.0,0.0,0.0,0.0,0.0,0.0,0.0],
"categories":[],"categories_nodes":[],"categories_segments":[],"categories_sizes":[],
"default_left":[true,true,true,true,false,true,false,false,false,false,false],
"id":34,
"left_children":[1,3,5,7,-1,9,-1,-1,-1,-1,-1],
"loss_changes":[0.0,0.0,0.0,0.0,0.0,0.0,0.0,0.0,0.0,0.0,0.0],
"parents":[2147483647,0,0,1,1,2,2,3,3,5,5],
"right_children":[2,4,6,8,-1,10,-1,-1,-1,-1,-1],
"split_conditions":[4.0843376159667969e+01,5.8675090789794922e+01,2.5201959609985352e+00,5.2599857330322266e+01,4.7088954597711563e-02,4.6071212768554688e+01,-4.4032882899045944e-02,2.5543000549077988e-02,-2.7365202084183693e-02,2.3964846506714821e-02,-1.9048623740673065e-02],
"split_indices":[23,0,7,10,0,0,0,0,0,0,0],
"split_type":[0,0,0,0,0,0,0,0,0,0,0],
"sum_hessian":[0.0,0.0,0.0,0.0,0.0,0.0,0.0,0.0,0.0,0.0,0.0],
"tree_param":{"num_deleted":"0","num_feature":"27","num_nodes":"11","size_leaf_vector":"0"}
},
{
"base_weights":[0.0,0.0,0.0,0.0,0.0,0.0,0.0,0.0,0.0,0.0,0.0],
"categories":[],"categories_nodes":[],"categories_segments":[],"categories_sizes":[],
"default_left":[true,true,true,false,true,true,false,false,false,false,false],
"id":35,
"left_children":[1,3,5,-1,7,9,-1,-1,-1,-1,-1],
"loss_changes":[0.0,0.0,0.0,0.0,0.0,0.0,0.0,0.0,0.0,0.0,0.0],
"parents":[2147483647,0,0,1,1,2,2,4,4,5,5],
"right_children":[2,4,6,-1,8,10,-1,-1,-1,-1,-1],
"split_conditions":[1.3463987112045288e+00,3.5372688293457031e+01,1.0905468750000000e+02,-1.7972666770219803e-02,1.2568029165267944e+00,4.1860086059570312e+02,-5.4319582879543304e-02,7.5320727191865444e-03,6.9857001304626465e-02,5.7536503300070763e-03,-6.0057036578655243e-02],
"split_indices":[3,24,23,0,7,1,0,0,0,0,0],
"split_type":[0,0,0,0,0,0,0,0,0,0,0],
"sum_hessian":[0.0,0.0,0.0,0.0,0.0,0.0,0.0,0.0,0.0,0.0,0.0],
"tree_param":{"num_deleted":"0","num_feature":"27","num_nodes":"11","size_leaf_vector":"0"}
},
{
"base_weights":[0.0,0.0,0.0,0.0,0.0,0.0,0.0,0.0,0.0,0.0,0.0],
"categories":[],"categories_nodes":[],"categories_segments":[],"categories_sizes":[],
"default_left":[true,true,true,false,true,true,false,false,false,false,false],
"id":36,
"left_children":[1,3,5,-1,7,9,-1,-1,-1,-1,-1],
"loss_changes":[0.0,0.0,0.0,0.0,0.0,0.0,0.0,0.0,0.0,0.0,0.0],
"parents":[2147483647,0,0,1,1,2,2,4,4,5,5],
"right_children":[2,4,6,-1,8,10,-1,-1,-1,-1,-1],
"split_conditions":[1.0357155799865723e+00,3.2514347076416016e+01,9.4627098083496094e+01,5.5349275469779968e-02,3.5837402343750000e+01,8.5099250793457031e+01,3.4029100090265274e-02,-3.5283800214529037e-02,4.7599487006664276e-02,-6.9770969275850803e-05,-5.7868331670761108e-02],
"split_indices":[7,23,10,0,18,15,0,0,0,0,0],
"split_type":[0,0,0,0,0,0,0,0,0,0,0],
"sum_hessian":[0.0,0.0,0.0,0.0,0.0,0.0,0.0,0.0,0.0,0.0,0.0],
"tree_param":{"num_deleted":"0","num_feature":"27","num_nodes":"11","size_leaf_vector":"0"}
},
{
"base_weights":[0.0,0.0,0.0,0.0,0.0,0.0,0.0,0.0,0.0,0.0,0.0,0.0,0.0],
"categories":[],"categories_nodes":[],"categories_segments":[],"categories_sizes":[],
"default_left":[true,true,true,true,true,true,false,false,false,false,false,false,false],
"id":37,
"left_children":[1,3,5,7,9,11,-1,-1,-1,-1,-1,-1,-1],
"loss_changes":[0.0,0.0,0.0,0.0,0.0,0.0,0.0,0.0,0.0,0.0,0.0,0.0,0.0],
"parents":[2147483647,0,0,1,1,2,2,3,3,4,4,5,5],
"right_children":[2,4,6,8,10,12,-1,-1,-1,-1,-1,-1,-1],
"split_conditions":[2.8337061405181885e+00,1.1967937946319580e+00,6.1647483825683594e+01,8.7826248168945312e+01,1.7725867033004761e+00,5.2318222045898438e+01,2.5170084089040756e-02,1.7240542918443680e-02,4.3132096529006958e-02,-5.1974151283502579e-02,1.1863274499773979e-02,-3.3957831561565399e-02,1.1752772144973278e-02],
"split_indices":[9,5,22,15,8,17,0,0,0,0,0,0,0],
"split_type":[0,0,0,0,0,0,0,0,0,0,0,0,0],
"sum_hessian":[0.0,0.0,0.0,0.0,0.0,0.0,0.0,0.0,0.0,0.0,0.0,0.0,0.0],
"tree_param":{"num_deleted":"0","num_feature":"27","num_nodes":"13","size_leaf_vector":"0"}
},
{
"base_weights":[0.0,0.0,0.0,0.0,0.0,0.0,0.0,0.0,0.0,0.0,0.0,0.0,0.0,0.0,0.0],
"categories":[],"categories_nodes":[],"categories_segments":[],"categories_sizes":[],
"default_left":[true,true,true,true,true,true,true,false,false,false,false,false,false,false,false],
"id":38,
"left_children":[1,3,5,7,9,11,13,-1,-1,-1,-1,-1,-1,-1,-1],
"loss_changes":[0.0,0.0,0.0,0.0,0.0,0.0,0.0,0.0,0.0,0.0,0.0,0.0,0.0,0.0,0.0],
"parents":[2147483647,0,0,1,1,2,2,3,3,4,4,5,5,6,6],
"right_children":[2,4,6,8,10,12,14,-1,-1,-1,-1,-1,-1,-1,-1],
"split_conditions":[1.7951906919479370e+00,2.8423926830291748e+00,6.1543533325195312e+01,1.1187374591827393e+00,1.3077158927917480e+00,8.9764988422393799e-01,8.3581329345703125e+01,-3.4431915730237961e-02,1.3243152759969234e-02,2.8651611879467964e-02,-4.5387116260826588e-03,7.9041288699954748e-04,-2.8922764584422112e-02,5.6616690009832382e-02,-2.1153144538402557e-02],
"split_indices":[5,3,24,26,7,3,12,0,0,0,0,0,0,0,0],
"split_type":[0,0,0,0,0,0,0,0,0,0,0,0,0,0,0],
"sum_hessian":[0.0,0.0,0.0,0.0,0.0,0.0,0.0,0.0,0.0,0.0,0.0,0.0,0.0,0.0,0.0],
"tree_param":{"num_deleted":"0","num_feature":"27","num_nodes":"15","size_leaf_vector":"0"}
},
{
"base_weights":[0.0,0.0,0.0,0.0,0.0,0.0,0.0,0.0,0.0],
"categories":[],"categories_nodes":[],"categories_segments":[],"categories_sizes":[],
"default_left":[true,true,true,false,false,true,false,false,false],
"id":39,
"left_children":[1,3,5,-1,-1,7,-1,-1,-1],
"loss_changes":[0.0,0.0,0.0,0.0,0.0,0.0,0.0,0.0,0.0],
"parents":[2147483647,0,0,1,1,2,2,5,5],
"right_children":[2,4,6,-1,-1,8,-1,-1,-1],
"split_conditions":[2.9919844865798950e-01,2.4444524943828583e-01,7.4296760559082031e+01,4.0373266674578190e-03,-3.5931825637817383e-02,3.8277194976806641e+01,-3.4716639667749405e-02,-1.0139892809092999e-02,4.4149972498416901e-02],
"split_indices":[5,4,0,0,0,22,0,0,0],
"split_type":[0,0,0,0,0,0,0,0,0],
"sum_hessian":[0.0,0.0,0.0,0.0,0.0,0.0,0.0,0.0,0.0],
"tree_param":{"num_deleted":"0","num_feature":"27","num_nodes":"9","size_leaf_vector":"0"}
},
{
"base_weights":[0.0,0.0,0.0,0.0,0.0,0.0,0.0,0.0,0.0,0.0,0.0,0.0,0.0],
"categories":[],"categories_nodes":[],"categories_segments":[],"categories_sizes":[],
"default_left":[true,true,true,true,true,true,false,false,false,false,false,false,false],
"id":40,
"left_children":[1,3,5,7,9,11,-1,-1,-1,-1,-1,-1,-1],
"loss_changes":[0.0,0.0,0.0,0.0,0.0,0.0,0.0,0.0,0.0,0.0,0.0,0.0,0.0],
"parents":[2147483647,0,0,1,1,2,2,3,3,4,4,5,5],
"right_children":[2,4,6,8,10,12,-1,-1,-1,-1,-1,-1,-1],
"split_conditions":[1.1967937946319580e+00,2.7057966232299805e+01,9.7966773986816406e+01,1.9614653015136719e+02,8.9761984348297119e-01,1.6457772254943848e+00,-4.3277028948068619e-02,-2.6626553386449814e-02,1.4844701625406742e-02,6.0734868049621582e-02,2.8667962178587914e-02,-4.2240917682647705e-02,1.2772670947015285e-02],
"split_indices":[6,11,12,1,4,2,0,0,0,0,0,0,0],
"split_type":[0,0,0,0,0,0,0,0,0,0,0,0,0],
"sum_hessian":[0.0,0.0,0.0,0.0,0.0,0.0,0.0,0.0,0.0,0.0,0.0,0.0,0.0],
"tree_param":{"num_deleted":"0","num_feature":"27","num_nodes":"13","size_leaf_vector":"0"}
},
{
"base_weights":[0.0,0.0,0.0,0.0,0.0,0.0,0.0],
"categories":[],"categories_nodes":[],"categories_segments":[],"categories_sizes":[],
"default_left":[true,true,false,true,false,false,false],
"id":41,
"left_children":[1,3,-1,5,-1,-1,-1],
"loss_changes":[0.0,0.0,0.0,0.0,0.0,0.0,0.0],
"parents":[2147483647,0,0,1,1,3,3],
"right_children":[2,4,-1,6,-1,-1,-1],
"split_conditions":[1.8064868164062500e+02,1.0570965576171875e+02,-3.3890608698129654e-02,1.0142665100097656e+02,4.6195250004529953e-02,6.9383587688207626e-03,-5.8771625161170959e-02],
"split_indices":[15,17,0,23,0,0,0],
"split_type":[0,0,0,0,0,0,0],
"sum_hessian":[0.0,0.0,0.0,0.0,0.0,0.0,0.0],
"tree_param":{"num_deleted":"0","num_feature":"27","num_nodes":"7","size_leaf_vector":"0"}
},
{
"base_weights":[0.0,0.0,0.0,0.0,0.0,0.0,0.0,0.0,0.0,0.0,0.0,0.0,0.0],
"categories":[],"categories_nodes":[],"categories_segments":[],"categories_sizes":[],
"default_left":[true,true,true,true,false,true,true,false,false,false,false,false,false],
"id":42,
"left_children":[1,3,5,7,-1,9,11,-1,-1,-1,-1,-1,-1],
"loss_changes":[0.0,0.0,0.0,0.0,0.0,0.0,0.0,0.0,0.0,0.0,0.0,0.0,0.0],
"parents":[2147483647,0,0,1,1,2,2,3,3,5,5,6,6],
"right_children":[2,4,6,8,-1,10,12,-1,-1,-1,-1,-1,-1],
"split_conditions":[2.0262885093688965e+00,2.6927890777587891e+00,2.3708697509765625e+02,2.4051690101623535e+00,-1.2276525609195232e-02,1.6480737304687500e+02,6.5656486511230469e+01,5.9608940035104752e-02,1.1891571804881096e-02,-4.5132145285606384e-02,2.2968487814068794e-02,8.0701876431703568e-03,-3.7800405174493790e-02],
"split_indices":[9,3,1,8,0,1,10,0,0,0,0,0,0],
"split_type":[0,0,0,0,0,0,0,0,0,0,0,0,0],
"sum_hessian":[0.0,0.0,0.0,0.0,0.0,0.0,0.0,0.0,0.0,0.0,0.0,0.0,0.0],
"tree_param":{"num_deleted":"0","num_feature":"27","num_nodes":"13","size_leaf_vector":"0"}
},
{
"base_weights":[0.0,0.0,0.0,0.0,0.0,0.0,0.0,0.0,0.0],
"categories":[],"categories_nodes":[],"categories_segments":[],"categories_sizes":[],
"default_left":[true,true,false,true,true,false,false,false,false],
"id":43,
"left_children":[1,3,-1,5,7,-1,-1,-1,-1],
"loss_changes":[0.0,0.0,0.0,0.0,0.0,0.0,0.0,0.0,0.0],
"parents":[2147483647,0,0,1,1,3,3,4,4],
"right_children":[2,4,-1,6,8,-1,-1,-1,-1],
"split_conditions":[2.8423852920532227e+00,4.0843376159667969e+01,2.9015535488724709e-02,8.9725047349929810e-01,2.5201959609985352e+00,-4.4836373999714851e-03,4.5167993754148483e-02,-1.6072494909167290e-03,-3.9912395179271698e-02],
"split_indices":[5,23,0,4,7,0,0,0,0],
"split_type":[0,0,0,0,0,0,0,0,0],
"sum_hessian":[0.0,0.0,0.0,0.0,0.0,0.0,0.0,0.0,0.0],
"tree_param":{"num_deleted":"0","num_feature":"27","num_nodes":"9","size_leaf_vector":"0"}
},
{
"base_weights":[0.0,0.0,0.0,0.0,0.0,0.0,0.0,0.0,0.0],
"categories":[],"categories_nodes":[],"categories_segments":[],"categories_sizes":[],
"default_left":[true,false,true,true,true,false,false,false,false],
"id":44,
"left_children":[1,-1,3,5,7,-1,-1,-1,-1],
"loss_changes":[0.0,0.0,0.0,0.0,0.0,0.0,0.0,0.0,0.0],
"parents":[2147483647,0,0,2,2,3,3,4,4],
"right_children":[2,-1,4,6,8,-1,-1,-1,-1],
"split_conditions":[7.8202491998672485e-01,2.5356652215123177e-02,2.5431900024414062e+00,8.6739318847656250e+01,2.6928105354309082e+00,-2.0307779312133789e-02,1.6908716410398483e-02,3.1367406249046326e-02,-3.7496532313525677e-03],
"split_indices":[8,0,3,21,2,0,0,0,0],
"split_type":[0,0,0,0,0,0,0,0,0],
"sum_hessian":[0.0,0.0,0.0,0.0,0.0,0.0,0.0,0.0,0.0],
"tree_param":{"num_deleted":"0","num_feature":"27","num_nodes":"9","size_leaf_vector":"0"}
},
{
"base_weights":[0.0,0.0,0.0,0.0,0.0,0.0,0.0,0.0,0.0,0.0,0.0,0.0,0.0],
"categories":[],"categories_nodes":[],"categories_segments":[],"categories_sizes":[],
"default_left":[true,true,true,true,false,true,true,false,false,false,false,false,false],
"id":45,
"left_children":[1,3,5,7,-1,9,11,-1,-1,-1,-1,-1,-1],
"loss_changes":[0.0,0.0,0.0,0.0,0.0,0.0,0.0,0.0,0.0,0.0,0.0,0.0,0.0],
"parents":[2147483647,0,0,1,1,2,2,3,3,5,5,6,6],
"right_children":[2,4,6,8,-1,10,12,-1,-1,-1,-1,-1,-1],
"split_conditions":[1.5305423736572266e+00,5.2334899902343750e+01,1.2308027648925781e+02,6.5632720947265625e+01,-7.2897136211395264e-02,1.3464310169219971e+00,3.7329383850097656e+01,6.6475071012973785e-02,-2.6618221774697304e-02,-3.4432902932167053e-02,1.4300162903964520e-02,8.4139794111251831e-02,-1.4959332533180714e-02],
"split_indices":[7,0,24,10,0,4,11,0,0,0,0,0,0],
"split_type":[0,0,0,0,0,0,0,0,0,0,0,0,0],
"sum_hessian":[0.0,0.0,0.0,0.0,0.0,0.0,0.0,0.0,0.0,0.0,0.0,0.0,0.0],
"tree_param":{"num_deleted":"0","num_feature":"27","num_nodes":"13","size_leaf_vector":"0"}
},
{
"base_weights":[0.0,0.0,0.0,0.0,0.0,0.0,0.0,0.0,0.0],
"categories":[],"categories_nodes":[],"categories_segments":[],"categories_sizes":[],
"default_left":[true,true,true,false,false,true,false,false,false],
"id":46,
"left_children":[1,3,5,-1,-1,7,-1,-1,-1],
"loss_changes":[0.0,0.0,0.0,0.0,0.0,0.0,0.0,0.0,0.0],
"parents":[2147483647,0,0,1,1,2,2,5,5],
"right_children":[2,4,6,-1,-1,8,-1,-1,-1],
"split_conditions":[1.0063329935073853e+00,5.9829431772232056e-01,1.3163691711425781e+02,3.3698610961437225e-02,-1.2804566882550716e-02,1.9471217346191406e+02,-3.6486249417066574e-02,-1.0752800852060318e-02,1.1048525571823120e-02],
"split_indices":[8,4,15,0,0,1,0,0,0],
"split_type":[0,0,0,0,0,0,0,0,0],
"sum_hessian":[0.0,0.0,0.0,0.0,0.0,0.0,0.0,0.0,0.0],
"tree_param":{"num_deleted":"0","num_feature":"27","num_nodes":"9","size_leaf_vector":"0"}
},
{
"base_weights":[0.0,0.0,0.0,0.0,0.0,0.0,0.0],
"categories":[],"categories_nodes":[],"categories_segments":[],"categories_sizes":[],
"default_left":[true,false,true,true,false,false,false],
"id":47,
"left_children":[1,-1,3,5,-1,-1,-1],
"loss_changes":[0.0,0.0,0.0,0.0,0.0,0.0,0.0],
"parents":[2147483647,0,0,2,2,3,3],
"right_children":[2,-1,4,6,-1,-1,-1],
"split_conditions":[1.4959922432899475e-01,-1.8234319984912872e-02,1.5852717590332031e+02,1.0989116430282593e+00,2.3679817095398903e-02,3.2009538263082504e-02,-3.9858785457909107e-03],
"split_indices":[6,0,12,8,0,0,0],
"split_type":[0,0,0,0,0,0,0],
"sum_hessian":[0.0,0.0,0.0,0.0,0.0,0.0,0.0],
"tree_param":{"num_deleted":"0","num_feature":"27","num_nodes":"7","size_leaf_vector":"0"}
},
{
"base_weights":[0.0,0.0,0.0,0.0,0.0,0.0,0.0,0.0,0.0,0.0,0.0],
"categories":[],"categories_nodes":[],"categories_segments":[],"categories_sizes":[],
"default_left":[true,true,true,false,true,false,true,false,false,false,false],
"id":48,
"left_children":[1,3,5,-1,7,-1,9,-1,-1,-1,-1],
"loss_changes":[0.0,0.0,0.0,0.0,0.0,0.0,0.0,0.0,0.0,0.0,0.0],
"parents":[2147483647,0,0,1,1,2,2,4,4,6,6],
"right_children":[2,4,6,-1,8,-1,10,-1,-1,-1,-1],
"split_conditions":[6.8769569396972656e+01,2.3999086380004883e+01,1.0475683212280273e+00,5.8730050921440125e-02,7.4595588684082031e+01,3.6992743611335754e-02,3.0418767929077148e+00,6.4026564359664917e-03,-3.3866588026285172e-02,-1.4618245884776115e-02,1.6402056440711021e-02],
"split_indices":[15,16,3,0,12,0,3,0,0,0,0],
"split_type":[0,0,0,0,0,0,0,0,0,0,0],
"sum_hessian":[0.0,0.0,0.0,0.0,0.0,0.0,0.0,0.0,0.0,0.0,0.0],
"tree_param":{"num_deleted":"0","num_feature":"27","num_nodes":"11","size_leaf_vector":"0"}
},
{
"base_weights":[0.0,0.0,0.0,0.0,0.0,0.0,0.0,0.0,0.0,0.0,0.0,0.0,0.0,0.0,0.0],
"categories":[],"categories_nodes":[],"categories_segments":[],"categories_sizes":[],
"default_left":[true,true,true,true,true,true,true,false,false,false,false,false,false,false,false],
"id":49,
"left_children":[1,3,5,7,9,11,13,-1,-1,-1,-1,-1,-1,-1,-1],
"loss_changes":[0.0,0.0,0.0,0.0,0.0,0.0,0.0,0.0,0.0,0.0,0.0,0.0,0.0,0.0,0.0],
"parents":[2147483647,0,0,1,1,2,2,3,3,4,4,5,5,6,6],
"right_children":[2,4,6,8,10,12,14,-1,-1,-1,-1,-1,-1,-1,-1],
"split_conditions":[2.4299972057342529e+00,6.3974197387695312e+01,3.0067288875579834e+00,2.4307014942169189e+00,1.8462040710449219e+02,1.8138552856445312e+02,6.1903870105743408e-01,1.9628472626209259e-02,-2.5136051699519157e-02,6.0286685824394226e-02,-1.7349779605865479e-02,-3.1421929597854614e-02,2.6700675487518311e-02,-7.1476302109658718e-03,-3.5793770104646683e-02],
"split_indices":[9,10,9,8,24,1,20,0,0,0,0,0,0,0,0],
"split_type":[0,0,0,0,0,0,0,0,0,0,0,0,0,0,0],
"sum_hessian":[0.0,0.0,0.0,0.0,0.0,0.0,0.0,0.0,0.0,0.0,0.0,0.0,0.0,0.0,0.0],
"tree_param":{"num_deleted":"0","num_feature":"27","num_nodes":"15","size_leaf_vector":"0"}
},
{
"base_weights":[0.0,0.0,0.0,0.0,0.0,0.0,0.0,0.0,0.0,0.0,0.0,0.0,0.0],
"categories":[],"categories_nodes":[],"categories_segments":[],"categories_sizes":[],
"default_left":[true,true,true,true,true,true,false,false,false,false,false,false,false],
"id":50,
"left_children":[1,3,5,7,9,11,-1,-1,-1,-1,-1,-1,-1],
"loss_changes":[0.0,0.0,0.0,0.0,0.0,0.0,0.0,0.0,0.0,0.0,0.0,0.0,0.0],
"parents":[2147483647,0,0,1,1,2,2,3,3,4,4,5,5],
"right_children":[2,4,6,8,10,12,-1,-1,-1,-1,-1,-1,-1],
"split_conditions":[4.0843376159667969e+01,5.2520675659179688e+01,2.6373288631439209e+00,1.6551992893218994e+00,1.4784110784530640e+00,1.3464137315750122e+00,-4.5931816101074219e-02,9.1398194432258606e-02,-4.2408495210111141e-03,-4.2377900332212448e-02,2.6624396443367004e-02,-3.6049511283636093e-02,2.9256062116473913e-03],
"split_indices":[23,10,26,7,7,2,0,0,0,0,0,0,0],
"split_type":[0,0,0,0,0,0,0,0,0,0,0,0,0],
"sum_hessian":[0.0,0.0,0.0,0.0,0.0,0.0,0.0,0.0,0.0,0.0,0.0,0.0,0.0],
"tree_param":{"num_deleted":"0","num_feature":"27","num_nodes":"13","size_leaf_vector":"0"}
},
{
"base_weights":[0.0,0.0,0.0,0.0,0.0,0.0,0.0,0.0,0.0,0.0,0.0,0.0,0.0],
"categories":[],"categories_nodes":[],"categories_segments":[],"categories_sizes":[],
"default_left":[true,true,true,false,true,true,true,false,false,false,false,false,false],
"id":51,
"left_children":[1,3,5,-1,7,9,11,-1,-1,-1,-1,-1,-1],
"loss_changes":[0.0,0.0,0.0,0.0,0.0,0.0,0.0,0.0,0.0,0.0,0.0,0.0,0.0],
"parents":[2147483647,0,0,1,1,2,2,4,4,5,5,6,6],
"right_children":[2,4,6,-1,8,10,12,-1,-1,-1,-1,-1,-1],
"split_conditions":[6.5552154541015625e+01,1.8810642242431641e+01,5.9839689731597900e-01,4.3449565768241882e-02,8.7294197082519531e+01,3.7028691172599792e-01,8.1715881347656250e+01,-6.0933385975658894e-03,-4.9427136778831482e-02,-2.7880456298589706e-02,-1.0188985615968704e-03,5.1688555628061295e-02,-6.2423045746982098e-03],
"split_indices":[10,10,5,0,12,26,23,0,0,0,0,0,0],
"split_type":[0,0,0,0,0,0,0,0,0,0,0,0,0],
"sum_hessian":[0.0,0.0,0.0,0.0,0.0,0.0,0.0,0.0,0.0,0.0,0.0,0.0,0.0],
"tree_param":{"num_deleted":"0","num_feature":"27","num_nodes":"13","size_leaf_vector":"0"}
},
{
"base_weights":[0.0,0.0,0.0,0.0,0.0,0.0,0.0,0.0,0.0,0.0,0.0],
"categories":[],"categories_nodes":[],"categories_segments":[],"categories_sizes":[],
"default_left":[true,true,true,true,false,true,false,false,false,false,false],
"id":52,
"left_children":[1,3,5,7,-1,9,-1,-1,-1,-1,-1],
"loss_changes":[0.0,0.0,0.0,0.0,0.0,0.0,0.0,0.0,0.0,0.0,0.0],
"parents":[2147483647,0,0,1,1,2,2,3,3,5,5],
"right_children":[2,4,6,8,-1,10,-1,-1,-1,-1,-1],
"split_conditions":[5.7953811645507812e+01,6.5809837341308594e+01,2.0449571609497070e+00,7.5872383117675781e+01,1.8385503441095352e-02,6.3491867065429688e+01,2.9830768704414368e-02,-1.5155090019106865e-02,2.6748292148113251e-02,1.2244435027241707e-02,-5.0531964749097824e-02],
"split_indices":[17,22,8,21,0,22,0,0,0,0,0],
"split_type":[0,0,0,0,0,0,0,0,0,0,0],
"sum_hessian":[0.0,0.0,0.0,0.0,0.0,0.0,0.0,0.0,0.0,0.0,0.0],
"tree_param":{"num_deleted":"0","num_feature":"27","num_nodes":"11","size_leaf_vector":"0"}
},
{
"base_weights":[0.0,0.0,0.0,0.0,0.0,0.0,0.0,0.0,0.0,0.0,0.0],
"categories":[],"categories_nodes":[],"categories_segments":[],"categories_sizes":[],
"default_left":[true,true,true,true,false,false,true,false,false,false,false],
"id":53,
"left_children":[1,3,5,7,-1,-1,9,-1,-1,-1,-1],
"loss_changes":[0.0,0.0,0.0,0.0,0.0,0.0,0.0,0.0,0.0,0.0,0.0],
"parents":[2147483647,0,0,1,1,2,2,3,3,6,6],
"right_children":[2,4,6,8,-1,-1,10,-1,-1,-1,-1],
"split_conditions":[4.0843376159667969e+01,2.9919922351837158e+00,1.4006975889205933e+00,3.4283302307128906e+01,2.7474667876958847e-02,2.6839232072234154e-02,2.5201959609985352e+00,2.1840924397110939e-02,-1.6606323421001434e-02,-4.9440097063779831e-03,-2.8030425310134888e-02],
"split_indices":[23,3,9,10,0,0,7,0,0,0,0],
"split_type":[0,0,0,0,0,0,0,0,0,0,0],
"sum_hessian":[0.0,0.0,0.0,0.0,0.0,0.0,0.0,0.0,0.0,0.0,0.0],
"tree_param":{"num_deleted":"0","num_feature":"27","num_nodes":"11","size_leaf_vector":"0"}
},
{
"base_weights":[0.0,0.0,0.0,0.0,0.0,0.0,0.0,0.0,0.0,0.0,0.0,0.0,0.0],
"categories":[],"categories_nodes":[],"categories_segments":[],"categories_sizes":[],
"default_left":[true,true,true,true,true,true,false,false,false,false,false,false,false],
"id":54,
"left_children":[1,3,5,7,9,11,-1,-1,-1,-1,-1,-1,-1],
"loss_changes":[0.0,0.0,0.0,0.0,0.0,0.0,0.0,0.0,0.0,0.0,0.0,0.0,0.0],
"parents":[2147483647,0,0,1,1,2,2,3,3,4,4,5,5],
"right_children":[2,4,6,8,10,12,-1,-1,-1,-1,-1,-1,-1],
"split_conditions":[3.6756448364257812e+02,2.0210137367248535e+00,1.0357155799865723e+00,1.9178646850585938e+02,4.0692691802978516e+01,5.6442964076995850e-01,3.4736331552267075e-02,7.1640796959400177e-02,-2.8087360784411430e-02,-2.9798215255141258e-02,4.1833560913801193e-02,5.9933304786682129e-02,-4.9631152302026749e-02],
"split_indices":[14,7,7,14,12,7,0,0,0,0,0,0,0],
"split_type":[0,0,0,0,0,0,0,0,0,0,0,0,0],
"sum_hessian":[0.0,0.0,0.0,0.0,0.0,0.0,0.0,0.0,0.0,0.0,0.0,0.0,0.0],
"tree_param":{"num_deleted":"0","num_feature":"27","num_nodes":"13","size_leaf_vector":"0"}
},
{
"base_weights":[0.0,0.0,0.0,0.0,0.0,0.0,0.0,0.0,0.0],
"categories":[],"categories_nodes":[],"categories_segments":[],"categories_sizes":[],
"default_left":[true,true,false,true,true,false,false,false,false],
"id":55,
"left_children":[1,3,-1,5,7,-1,-1,-1,-1],
"loss_changes":[0.0,0.0,0.0,0.0,0.0,0.0,0.0,0.0,0.0],
"parents":[2147483647,0,0,1,1,3,3,4,4],
"right_children":[2,4,-1,6,8,-1,-1,-1,-1],
"split_conditions":[2.7676093578338623e+00,1.4549492597579956e+00,-1.3852705247700214e-02,5.1837005615234375e+01,1.6674076843261719e+02,3.3036995679140091e-02,-1.2196251191198826e-02,6.4933843910694122e-02,-1.2119253166019917e-02],
"split_indices":[7,8,0,0,14,0,0,0,0],
"split_type":[0,0,0,0,0,0,0,0,0],
"sum_hessian":[0.0,0.0,0.0,0.0,0.0,0.0,0.0,0.0,0.0],
"tree_param":{"num_deleted":"0","num_feature":"27","num_nodes":"9","size_leaf_vector":"0"}
},
{
"base_weights":[0.0,0.0,0.0,0.0,0.0,0.0,0.0,0.0,0.0,0.0,0.0],
"categories":[],"categories_nodes":[],"categories_segments":[],"categories_sizes":[],
"default_left":[true,true,true,true,false,true,false,false,false,false,false],
"id":56,
"left_children":[1,3,5,7,-1,9,-1,-1,-1,-1,-1],
"loss_changes":[0.0,0.0,0.0,0.0,0.0,0.0,0.0,0.0,0.0,0.0,0.0],
"parents":[2147483647,0,0,1,1,2,2,3,3,5,5],
"right_children":[2,4,6,8,-1,10,-1,-1,-1,-1,-1],
"split_conditions":[5.7953811645507812e+01,9.1046859741210938e+01,3.6469485473632812e+02,3.8668968200683594e+01,-3.7773270159959793e-02,4.3750972747802734e+01,-1.8375525251030922e-02,-2.7279704809188843e-02,1.3952930457890034e-02,5.0460778176784515e-02,3.2167742028832436e-03],
"split_indices":[17,21,1,0,0,12,0,0,0,0,0],
"split_type":[0,0,0,0,0,0,0,0,0,0,0],
"sum_hessian":[0.0,0.0,0.0,0.0,0.0,0.0,0.0,0.0,0.0,0.0,0.0],
"tree_param":{"num_deleted":"0","num_feature":"27","num_nodes":"11","size_leaf_vector":"0"}
},
{
"base_weights":[0.0,0.0,0.0,0.0,0.0,0.0,0.0,0.0,0.0,0.0,0.0,0.0,0.0,0.0,0.0],
"categories":[],"categories_nodes":[],"categories_segments":[],"categories_sizes":[],
"default_left":[true,true,true,true,true,true,true,false,false,false,false,false,false,false,false],
"id":57,
"left_children":[1,3,5,7,9,11,13,-1,-1,-1,-1,-1,-1,-1,-1],
"loss_changes":[0.0,0.0,0.0,0.0,0.0,0.0,0.0,0.0,0.0,0.0,0.0,0.0,0.0,0.0,0.0],
"parents":[2147483647,0,0,1,1,2,2,3,3,4,4,5,5,6,6],
"right_children":[2,4,6,8,10,12,14,-1,-1,-1,-1,-1,-1,-1,-1],
"split_conditions":[1.0357155799865723e+00,3.6695617437362671e-01,4.7945331573486328e+01,1.8817787170410156e+00,6.5658432006835938e+01,6.1647483825683594e+01,1.6036219596862793e+00,5.8764420449733734e-02,2.3431424051523209e-03,1.3068732805550098e-02,-3.4027379006147385e-02,-5.9623401612043381e-03,3.7851218134164810e-02,5.7731857523322105e-03,-4.3169658631086349e-02],
"split_indices":[7,20,16,8,10,22,7,0,0,0,0,0,0,0,0],
"split_type":[0,0,0,0,0,0,0,0,0,0,0,0,0,0,0],
"sum_hessian":[0.0,0.0,0.0,0.0,0.0,0.0,0.0,0.0,0.0,0.0,0.0,0.0,0.0,0.0,0.0],
"tree_param":{"num_deleted":"0","num_feature":"27","num_nodes":"15","size_leaf_vector":"0"}
},
{
"base_weights":[0.0,0.0,0.0,0.0,0.0,0.0,0.0,0.0,0.0],
"categories":[],"categories_nodes":[],"categories_segments":[],"categories_sizes":[],
"default_left":[true,true,false,true,true,false,false,false,false],
"id":58,
"left_children":[1,3,-1,5,7,-1,-1,-1,-1],
"loss_changes":[0.0,0.0,0.0,0.0,0.0,0.0,0.0,0.0,0.0],
"parents":[2147483647,0,0,1,1,3,3,4,4],
"right_children":[2,4,-1,6,8,-1,-1,-1,-1],
"split_conditions":[2.8360915184020996e+00,1.7779557704925537e+00,1.9580032676458359e-02,2.9052982330322266e+01,1.7253240346908569e+00,1.8094414845108986e-02,-5.4312841966748238e-03,-2.7197049930691719e-02,1.9102729856967926e-04],
"split_indices":[25,7,0,21,8,0,0,0,0],
"split_type":[0,0,0,0,0,0,0,0,0],
"sum_hessian":[0.0,0.0,0.0,0.0,0.0,0.0,0.0,0.0,0.0],
"tree_param":{"num_deleted":"0","num_feature":"27","num_nodes":"9","size_leaf_vector":"0"}
},
{
"base_weights":[0.0,0.0,0.0,0.0,0.0,0.0,0.0,0.0,0.0],
"categories":[],"categories_nodes":[],"categories_segments":[],"categories_sizes":[],
"default_left":[true,true,true,false,false,true,false,false,false],
"id":59,
"left_children":[1,3,5,-1,-1,7,-1,-1,-1],
"loss_changes":[0.0,0.0,0.0,0.0,0.0,0.0,0.0,0.0,0.0],
"parents":[2147483647,0,0,1,1,2,2,5,5],
"right_children":[2,4,6,-1,-1,8,-1,-1,-1],
"split_conditions":[2.9919844865798950e-01,8.5991077423095703e+00,7.4296760559082031e+01,-4.9977470189332962e-04,-1.9934572279453278e-02,6.5552154541015625e+01,-2.6222137734293938e-02,-7.9307714477181435e-03,3.4522034227848053e-02],
"split_indices":[5,11,0,0,0,10,0,0,0],
"split_type":[0,0,0,0,0,0,0,0,0],
"sum_hessian":[0.0,0.0,0.0,0.0,0.0,0.0,0.0,0.0,0.0],
"tree_param":{"num_deleted":"0","num_feature":"27","num_nodes":"9","size_leaf_vector":"0"}
},
{
"base_weights":[0.0,0.0,0.0,0.0,0.0,0.0,0.0,0.0,0.0,0.0,0.0,0.0,0.0],
"categories":[],"categories_nodes":[],"categories_segments":[],"categories_sizes":[],
"default_left":[true,true,true,true,false,true,true,false,false,false,false,false,false],
"id":60,
"left_children":[1,3,5,7,-1,9,11,-1,-1,-1,-1,-1,-1],
"loss_changes":[0.0,0.0,0.0,0.0,0.0,0.0,0.0,0.0,0.0,0.0,0.0,0.0,0.0],
"parents":[2147483647,0,0,1,1,2,2,3,3,5,5,6,6],
"right_children":[2,4,6,8,-1,10,12,-1,-1,-1,-1,-1,-1],
"split_conditions":[1.5305423736572266e+00,5.2334899902343750e+01,2.0068827819824219e+02,1.2956300354003906e+02,-3.5934645682573318e-02,1.7951906919479370e+00,1.1967937946319580e+00,2.7074242010712624e-02,-2.2034656256437302e-02,-2.6957694441080093e-02,2.3808518424630165e-02,5.5049605667591095e-02,-4.0480913594365120e-03],
"split_indices":[7,0,1,24,0,6,6,0,0,0,0,0,0],
"split_type":[0,0,0,0,0,0,0,0,0,0,0,0,0],
"sum_hessian":[0.0,0.0,0.0,0.0,0.0,0.0,0.0,0.0,0.0,0.0,0.0,0.0,0.0],
"tree_param":{"num_deleted":"0","num_feature":"27","num_nodes":"13","size_leaf_vector":"0"}
},
{
"base_weights":[0.0,0.0,0.0,0.0,0.0,0.0,0.0],
"categories":[],"categories_nodes":[],"categories_segments":[],"categories_sizes":[],
"default_left":[true,false,true,true,false,false,false],
"id":61,
"left_children":[1,-1,3,5,-1,-1,-1],
"loss_changes":[0.0,0.0,0.0,0.0,0.0,0.0,0.0],
"parents":[2147483647,0,0,2,2,3,3],
"right_children":[2,-1,4,6,-1,-1,-1],
"split_conditions":[7.8202491998672485e-01,1.7963757738471031e-02,1.0570965576171875e+02,1.0248055267333984e+02,2.3999484255909920e-02,1.1410943698137999e-03,-4.3035976588726044e-02],
"split_indices":[8,0,17,21,0,0,0],
"split_type":[0,0,0,0,0,0,0],
"sum_hessian":[0.0,0.0,0.0,0.0,0.0,0.0,0.0],
"tree_param":{"num_deleted":"0","num_feature":"27","num_nodes":"7","size_leaf_vector":"0"}
},
{
"base_weights":[0.0,0.0,0.0,0.0,0.0,0.0,0.0,0.0,0.0,0.0,0.0,0.0,0.0],
"categories":[],"categories_nodes":[],"categories_segments":[],"categories_sizes":[],
"default_left":[true,true,true,true,false,true,true,false,false,false,false,false,false],
"id":62,
"left_children":[1,3,5,7,-1,9,11,-1,-1,-1,-1,-1,-1],
"loss_changes":[0.0,0.0,0.0,0.0,0.0,0.0,0.0,0.0,0.0,0.0,0.0,0.0,0.0],
"parents":[2147483647,0,0,1,1,2,2,3,3,5,5,6,6],
"right_children":[2,4,6,8,-1,10,12,-1,-1,-1,-1,-1,-1],
"split_conditions":[1.7951906919479370e+00,1.3099011230468750e+02,1.5000612735748291e+00,7.8897142410278320e-01,1.5836257487535477e-02,4.5854213714599609e+01,2.6928386688232422e+00,4.7470711171627045e-02,-1.3747124001383781e-02,-5.4482098668813705e-02,1.3177380897104740e-02,3.7700314074754715e-02,-2.4567798245698214e-03],
"split_indices":[5,10,7,7,0,11,2,0,0,0,0,0,0],
"split_type":[0,0,0,0,0,0,0,0,0,0,0,0,0],
"sum_hessian":[0.0,0.0,0.0,0.0,0.0,0.0,0.0,0.0,0.0,0.0,0.0,0.0,0.0],
"tree_param":{"num_deleted":"0","num_feature":"27","num_nodes":"13","size_leaf_vector":"0"}
},
{
"base_weights":[0.0,0.0,0.0,0.0,0.0,0.0,0.0],
"categories":[],"categories_nodes":[],"categories_segments":[],"categories_sizes":[],
"default_left":[true,false,true,false,true,false,false],
"id":63,
"left_children":[1,-1,3,-1,5,-1,-1],
"loss_changes":[0.0,0.0,0.0,0.0,0.0,0.0,0.0],
"parents":[2147483647,0,0,2,2,4,4],
"right_children":[2,-1,4,-1,6,-1,-1],
"split_conditions":[1.4959922432899475e-01,-1.7330409958958626e-02,5.4088872671127319e-01,-3.4222915768623352e-02,3.5636253356933594e+01,9.1373836621642113e-03,-2.3237129207700491e-03],
"split_indices":[6,0,7,0,16,0,0],
"split_type":[0,0,0,0,0,0,0],
"sum_hessian":[0.0,0.0,0.0,0.0,0.0,0.0,0.0],
"tree_param":{"num_deleted":"0","num_feature":"27","num_nodes":"7","size_leaf_vector":"0"}
},
{
"base_weights":[0.0,0.0,0.0,0.0,0.0,0.0,0.0],
"categories":[],"categories_nodes":[],"categories_segments":[],"categories_sizes":[],
"default_left":[true,true,false,false,true,false,false],
"id":64,
"left_children":[1,3,-1,-1,5,-1,-1],
"loss_changes":[0.0,0.0,0.0,0.0,0.0,0.0,0.0],
"parents":[2147483647,0,0,1,1,4,4],
"right_children":[2,4,-1,-1,6,-1,-1],
"split_conditions":[5.1185452270507812e+02,1.0807652473449707e+00,-1.5058586373925209e-02,2.3779070004820824e-02,7.1117652893066406e+01,-4.2957589030265808e-03,2.0444875583052635e-02],
"split_indices":[14,8,0,0,22,0,0],
"split_type":[0,0,0,0,0,0,0],
"sum_hessian":[0.0,0.0,0.0,0.0,0.0,0.0,0.0],
"tree_param":{"num_deleted":"0","num_feature":"27","num_nodes":"7","size_leaf_vector":"0"}
},
{
"base_weights":[0.0,0.0,0.0,0.0,0.0,0.0,0.0,0.0,0.0,0.0,0.0],
"categories":[],"categories_nodes":[],"categories_segments":[],"categories_sizes":[],
"default_left":[true,true,true,false,false,true,true,false,false,false,false],
"id":65,
"left_children":[1,3,5,-1,-1,7,9,-1,-1,-1,-1],
"loss_changes":[0.0,0.0,0.0,0.0,0.0,0.0,0.0,0.0,0.0,0.0,0.0],
"parents":[2147483647,0,0,1,1,2,2,5,5,6,6],
"right_children":[2,4,6,-1,-1,8,10,-1,-1,-1,-1],
"split_conditions":[9.5238685607910156e-02,1.3463929891586304e+00,4.4879767298698425e-01,9.2733222991228104e-03,-4.6647049486637115e-02,9.8509007692337036e-01,2.7708392143249512e+00,-2.9086969792842865e-02,3.9013444911688566e-03,8.6637753993272781e-03,-1.4085872098803520e-02],
"split_indices":[20,6,6,0,0,7,7,0,0,0,0],
"split_type":[0,0,0,0,0,0,0,0,0,0,0],
"sum_hessian":[0.0,0.0,0.0,0.0,0.0,0.0,0.0,0.0,0.0,0.0,0.0],
"tree_param":{"num_deleted":"0","num_feature":"27","num_nodes":"11","size_leaf_vector":"0"}
},
{
"base_weights":[0.0,0.0,0.0,0.0,0.0,0.0,0.0,0.0,0.0,0.0,0.0,0.0,0.0],
"categories":[],"categories_nodes":[],"categories_segments":[],"categories_sizes":[],
"default_left":[true,true,true,true,false,true,true,false,false,false,false,false,false],
"id":66,
"left_children":[1,3,5,7,-1,9,11,-1,-1,-1,-1,-1,-1],
"loss_changes":[0.0,0.0,0.0,0.0,0.0,0.0,0.0,0.0,0.0,0.0,0.0,0.0,0.0],
"parents":[2147483647,0,0,1,1,2,2,3,3,5,5,6,6],
"right_children":[2,4,6,8,-1,10,12,-1,-1,-1,-1,-1,-1],
"split_conditions":[4.0843376159667969e+01,2.7228628158569336e+01,6.1647483825683594e+01,1.9448269605636597e+00,2.2560089826583862e-02,1.2956300354003906e+02,1.0253195190429688e+02,2.8872083872556686e-02,-1.4231770299375057e-02,-7.9440400004386902e-03,3.1028440222144127e-02,-2.3152390494942665e-03,-6.2717258930206299e-02],
"split_indices":[23,23,22,2,0,24,10,0,0,0,0,0,0],
"split_type":[0,0,0,0,0,0,0,0,0,0,0,0,0],
"sum_hessian":[0.0,0.0,0.0,0.0,0.0,0.0,0.0,0.0,0.0,0.0,0.0,0.0,0.0],
"tree_param":{"num_deleted":"0","num_feature":"27","num_nodes":"13","size_leaf_vector":"0"}
},
{
"base_weights":[0.0,0.0,0.0,0.0,0.0,0.0,0.0,0.0,0.0,0.0,0.0,0.0,0.0],
"categories":[],"categories_nodes":[],"categories_segments":[],"categories_sizes":[],
"default_left":[true,true,true,true,true,true,false,false,false,false,false,false,false],
"id":67,
"left_children":[1,3,5,7,9,11,-1,-1,-1,-1,-1,-1,-1],
"loss_changes":[0.0,0.0,0.0,0.0,0.0,0.0,0.0,0.0,0.0,0.0,0.0,0.0,0.0],
"parents":[2147483647,0,0,1,1,2,2,3,3,4,4,5,5],
"right_children":[2,4,6,8,10,12,-1,-1,-1,-1,-1,-1,-1],
"split_conditions":[2.3935875892639160e+00,3.7329383850097656e+01,2.2440109252929688e+00,8.0881591796875000e+01,1.1967937946319580e+00,6.4584403991699219e+01,3.5494342446327209e-02,-8.5392771288752556e-03,1.7567280679941177e-02,4.4478520750999451e-02,-7.3427483439445496e-03,9.0219778940081596e-03,-3.1636085361242294e-02],
"split_indices":[6,11,3,21,5,24,0,0,0,0,0,0,0],
"split_type":[0,0,0,0,0,0,0,0,0,0,0,0,0],
"sum_hessian":[0.0,0.0,0.0,0.0,0.0,0.0,0.0,0.0,0.0,0.0,0.0,0.0,0.0],
"tree_param":{"num_deleted":"0","num_feature":"27","num_nodes":"13","size_leaf_vector":"0"}
},
{
"base_weights":[0.0,0.0,0.0,0.0,0.0,0.0,0.0,0.0,0.0,0.0,0.0,0.0,0.0,0.0,0.0],
"categories":[],"categories_nodes":[],"categories_segments":[],"categories_sizes":[],
"default_left":[true,true,true,true,true,true,true,false,false,false,false,false,false,false,false],
"id":68,
"left_children":[1,3,5,7,9,11,13,-1,-1,-1,-1,-1,-1,-1,-1],
"loss_changes":[0.0,0.0,0.0,0.0,0.0,0.0,0.0,0.0,0.0,0.0,0.0,0.0,0.0,0.0,0.0],
"parents":[2147483647,0,0,1,1,2,2,3,3,4,4,5,5,6,6],
"right_children":[2,4,6,8,10,12,14,-1,-1,-1,-1,-1,-1,-1,-1],
"split_conditions":[6.8769569396972656e+01,1.9447932243347168e+00,1.0357155799865723e+00,1.2556306123733521e+00,1.4716213989257812e+02,4.1702261352539062e+02,3.4091735839843750e+02,-8.5836164653301239e-02,5.4223262704908848e-03,-2.5853704661130905e-02,2.3217113688588142e-02,4.6000912785530090e-02,-2.0748695358633995e-02,-2.0257124677300453e-02,1.4552967622876167e-02],
"split_indices":[15,3,7,7,1,14,14,0,0,0,0,0,0,0,0],
"split_type":[0,0,0,0,0,0,0,0,0,0,0,0,0,0,0],
"sum_hessian":[0.0,0.0,0.0,0.0,0.0,0.0,0.0,0.0,0.0,0.0,0.0,0.0,0.0,0.0,0.0],
"tree_param":{"num_deleted":"0","num_feature":"27","num_nodes":"15","size_leaf_vector":"0"}
},
{
"base_weights":[0.0,0.0,0.0,0.0,0.0,0.0,0.0,0.0,0.0,0.0,0.0,0.0,0.0],
"categories":[],"categories_nodes":[],"categories_segments":[],"categories_sizes":[],
"default_left":[true,true,true,true,false,true,true,false,false,false,false,false,false],
"id":69,
"left_children":[1,3,5,7,-1,9,11,-1,-1,-1,-1,-1,-1],
"loss_changes":[0.0,0.0,0.0,0.0,0.0,0.0,0.0,0.0,0.0,0.0,0.0,0.0,0.0],
"parents":[2147483647,0,0,1,1,2,2,3,3,5,5,6,6],
"right_children":[2,4,6,8,-1,10,12,-1,-1,-1,-1,-1,-1],
"split_conditions":[2.2709146118164062e+02,7.1044685363769531e+01,2.0945701599121094e+00,7.2175895690917969e+01,4.7816351056098938e-02,1.1971169710159302e+00,7.4795907735824585e-01,-9.4661079347133636e-03,2.4972727522253990e-02,3.1059902161359787e-02,7.4769724160432816e-03,2.7689919807016850e-03,-4.7883160412311554e-02],
"split_indices":[1,22,3,21,0,3,4,0,0,0,0,0,0],
"split_type":[0,0,0,0,0,0,0,0,0,0,0,0,0],
"sum_hessian":[0.0,0.0,0.0,0.0,0.0,0.0,0.0,0.0,0.0,0.0,0.0,0.0,0.0],
"tree_param":{"num_deleted":"0","num_feature":"27","num_nodes":"13","size_leaf_vector":"0"}
},
{
"base_weights":[0.0,0.0,0.0,0.0,0.0,0.0,0.0,0.0,0.0,0.0,0.0,0.0,0.0],
"categories":[],"categories_nodes":[],"categories_segments":[],"categories_sizes":[],
"default_left":[true,true,true,true,false,true,true,false,false,false,false,false,false],
"id":70,
"left_children":[1,3,5,7,-1,9,11,-1,-1,-1,-1,-1,-1],
"loss_changes":[0.0,0.0,0.0,0.0,0.0,0.0,0.0,0.0,0.0,0.0,0.0,0.0,0.0],
"parents":[2147483647,0,0,1,1,2,2,3,3,5,5,6,6],
"right_children":[2,4,6,8,-1,10,12,-1,-1,-1,-1,-1,-1],
"split_conditions":[8.1686752319335938e+01,6.7741424560546875e+01,1.2831289768218994e+00,1.6967526674270630e+00,2.2299533709883690e-02,1.5070451498031616e+00,2.3423955440521240e+00,4.0577291510999203e-03,-2.9143417254090309e-02,-2.8595668263733387e-03,3.6402489989995956e-02,-6.9522812962532043e-02,1.6199249774217606e-02],
"split_indices":[23,21,7,25,0,26,8,0,0,0,0,0,0],
"split_type":[0,0,0,0,0,0,0,0,0,0,0,0,0],
"sum_hessian":[0.0,0.0,0.0,0.0,0.0,0.0,0.0,0.0,0.0,0.0,0.0,0.0,0.0],
"tree_param":{"num_deleted":"0","num_feature":"27","num_nodes":"13","size_leaf_vector":"0"}
},
{
"base_weights":[0.0,0.0,0.0,0.0,0.0,0.0,0.0,0.0,0.0,0.0,0.0,0.0,0.0,0.0,0.0],
"categories":[],"categories_nodes":[],"categories_segments":[],"categories_sizes":[],
"default_left":[true,true,true,true,true,true,true,false,false,false,false,false,false,false,false],
"id":71,
"left_children":[1,3,5,7,9,11,13,-1,-1,-1,-1,-1,-1,-1,-1],
"loss_changes":[0.0,0.0,0.0,0.0,0.0,0.0,0.0,0.0,0.0,0.0,0.0,0.0,0.0,0.0,0.0],
"parents":[2147483647,0,0,1,1,2,2,3,3,4,4,5,5,6,6],
"right_children":[2,4,6,8,10,12,14,-1,-1,-1,-1,-1,-1,-1,-1],
"split_conditions":[2.5764899253845215e+00,2.5431995391845703e+00,2.6928446292877197e+00,1.2857142686843872e+00,1.2849778747558594e+02,1.9448359012603760e+00,4.7618341445922852e-01,-2.3146269842982292e-02,2.3255778476595879e-02,2.1446958184242249e-02,-2.5937288999557495e-02,-4.0995236486196518e-03,2.9717074707150459e-02,-1.1783340014517307e-02,-5.4340202361345291e-02],
"split_indices":[8,2,2,19,12,5,20,0,0,0,0,0,0,0,0],
"split_type":[0,0,0,0,0,0,0,0,0,0,0,0,0,0,0],
"sum_hessian":[0.0,0.0,0.0,0.0,0.0,0.0,0.0,0.0,0.0,0.0,0.0,0.0,0.0,0.0,0.0],
"tree_param":{"num_deleted":"0","num_feature":"27","num_nodes":"15","size_leaf_vector":"0"}
},
{
"base_weights":[0.0,0.0,0.0,0.0,0.0,0.0,0.0,0.0,0.0],
"categories":[],"categories_nodes":[],"categories_segments":[],"categories_sizes":[],
"default_left":[true,false,true,true,true,false,false,false,false],
"id":72,
"left_children":[1,-1,3,5,7,-1,-1,-1,-1],
"loss_changes":[0.0,0.0,0.0,0.0,0.0,0.0,0.0,0.0,0.0],
"parents":[2147483647,0,0,2,2,3,3,4,4],
"right_children":[2,-1,4,6,8,-1,-1,-1,-1],
"split_conditions":[7.8202491998672485e-01,2.1689593791961670e-02,8.6435562133789062e+01,1.2333265542984009e+00,1.2919936180114746e+00,2.9197927564382553e-02,-4.9873688258230686e-03,-5.1749419420957565e-02,1.5944719314575195e-02],
"split_indices":[8,0,10,7,7,0,0,0,0],
"split_type":[0,0,0,0,0,0,0,0,0],
"sum_hessian":[0.0,0.0,0.0,0.0,0.0,0.0,0.0,0.0,0.0],
"tree_param":{"num_deleted":"0","num_feature":"27","num_nodes":"9","size_leaf_vector":"0"}
},
{
"base_weights":[0.0,0.0,0.0,0.0,0.0,0.0,0.0,0.0,0.0,0.0,0.0],
"categories":[],"categories_nodes":[],"categories_segments":[],"categories_sizes":[],
"default_left":[true,true,true,true,false,true,false,false,false,false,false],
"id":73,
"left_children":[1,3,5,7,-1,9,-1,-1,-1,-1,-1],
"loss_changes":[0.0,0.0,0.0,0.0,0.0,0.0,0.0,0.0,0.0,0.0,0.0],
"parents":[2147483647,0,0,1,1,2,2,3,3,5,5],
"right_children":[2,4,6,8,-1,10,-1,-1,-1,-1,-1],
"split_conditions":[4.0843376159667969e+01,1.0470027923583984e+00,1.2857142686843872e+00,2.8424043655395508e+00,3.1686697155237198e-02,2.3936519622802734e+00,-2.1436370909214020e-02,8.1861065700650215e-03,-1.4404785819351673e-02,-2.4893583729863167e-02,1.3179622590541840e-02],
"split_indices":[23,4,19,2,0,2,0,0,0,0,0],
"split_type":[0,0,0,0,0,0,0,0,0,0,0],
"sum_hessian":[0.0,0.0,0.0,0.0,0.0,0.0,0.0,0.0,0.0,0.0,0.0],
"tree_param":{"num_deleted":"0","num_feature":"27","num_nodes":"11","size_leaf_vector":"0"}
},
{
"base_weights":[0.0,0.0,0.0,0.0,0.0,0.0,0.0,0.0,0.0],
"categories":[],"categories_nodes":[],"categories_segments":[],"categories_sizes":[],
"default_left":[true,true,true,false,false,false,true,false,false],
"id":74,
"left_children":[1,3,5,-1,-1,-1,7,-1,-1],
"loss_changes":[0.0,0.0,0.0,0.0,0.0,0.0,0.0,0.0,0.0],
"parents":[2147483647,0,0,1,1,2,2,6,6],
"right_children":[2,4,6,-1,-1,-1,8,-1,-1],
"split_conditions":[2.9922798275947571e-01,2.3367746174335480e-01,4.4879767298698425e-01,1.7597548663616180e-02,-1.8377372762188315e-03,-1.7597971484065056e-02,2.1309860229492188e+01,-1.4958060346543789e-02,1.0091513395309448e-02],
"split_indices":[4,5,5,0,0,0,22,0,0],
"split_type":[0,0,0,0,0,0,0,0,0],
"sum_hessian":[0.0,0.0,0.0,0.0,0.0,0.0,0.0,0.0,0.0],
"tree_param":{"num_deleted":"0","num_feature":"27","num_nodes":"9","size_leaf_vector":"0"}
},
{
"base_weights":[0.0,0.0,0.0,0.0,0.0,0.0,0.0,0.0,0.0,0.0,0.0,0.0,0.0],
"categories":[],"categories_nodes":[],"categories_segments":[],"categories_sizes":[],
"default_left":[true,true,true,true,false,true,true,false,false,false,false,false,false],
"id":75,
"left_children":[1,3,5,7,-1,9,11,-1,-1,-1,-1,-1,-1],
"loss_changes":[0.0,0.0,0.0,0.0,0.0,0.0,0.0,0.0,0.0,0.0,0.0,0.0,0.0],
"parents":[2147483647,0,0,1,1,2,2,3,3,5,5,6,6],
"right_children":[2,4,6,8,-1,10,12,-1,-1,-1,-1,-1,-1],
"split_conditions":[2.4921493530273438e+01,2.1375955581665039e+01,1.4962480068206787e+00,4.7618827223777771e-01,4.0427472442388535e-02,4.0296670532226562e+02,2.3044923782348633e+01,-8.7772738188505173e-03,9.8711811006069183e-03,-7.1507720276713371e-03,4.1705384850502014e-02,9.0539362281560898e-03,-4.9654930830001831e-02],
"split_indices":[11,11,6,20,0,14,18,0,0,0,0,0,0],
"split_type":[0,0,0,0,0,0,0,0,0,0,0,0,0],
"sum_hessian":[0.0,0.0,0.0,0.0,0.0,0.0,0.0,0.0,0.0,0.0,0.0,0.0,0.0],
"tree_param":{"num_deleted":"0","num_feature":"27","num_nodes":"13","size_leaf_vector":"0"}
},
{
"base_weights":[0.0,0.0,0.0,0.0,0.0,0.0,0.0],
"categories":[],"categories_nodes":[],"categories_segments":[],"categories_sizes":[],
"default_left":[true,false,true,true,false,false,false],
"id":76,
"left_children":[1,-1,3,5,-1,-1,-1],
"loss_changes":[0.0,0.0,0.0,0.0,0.0,0.0,0.0],
"parents":[2147483647,0,0,2,2,3,3],
"right_children":[2,-1,4,6,-1,-1,-1],
"split_conditions":[1.4959922432899475e-01,-1.0970660485327244e-02,7.4296760559082031e+01,1.8902958631515503e+00,-2.1883854642510414e-02,2.2177176550030708e-02,-8.3592543378472328e-03],
"split_indices":[5,0,0,8,0,0,0],
"split_type":[0,0,0,0,0,0,0],
"sum_hessian":[0.0,0.0,0.0,0.0,0.0,0.0,0.0],
"tree_param":{"num_deleted":"0","num_feature":"27","num_nodes":"7","size_leaf_vector":"0"}
},
{
"base_weights":[0.0,0.0,0.0,0.0,0.0,0.0,0.0,0.0,0.0,0.0,0.0,0.0,0.0],
"categories":[],"categories_nodes":[],"categories_segments":[],"categories_sizes":[],
"default_left":[true,true,true,true,true,false,true,false,false,false,false,false,false],
"id":77,
"left_children":[1,3,5,7,9,-1,11,-1,-1,-1,-1,-1,-1],
"loss_changes":[0.0,0.0,0.0,0.0,0.0,0.0,0.0,0.0,0.0,0.0,0.0,0.0,0.0],
"parents":[2147483647,0,0,1,1,2,2,3,3,4,4,6,6],
"right_children":[2,4,6,8,10,-1,12,-1,-1,-1,-1,-1,-1],
"split_conditions":[1.9035655260086060e+00,3.5835632324218750e+01,9.9058079719543457e-01,1.8726857006549835e-01,5.4088872671127319e-01,-3.6664348095655441e-02,2.8885774612426758e+01,-1.4937954023480415e-02,1.4687417075037956e-02,2.8077358379960060e-02,-4.2761318385601044e-02,-8.6723780259490013e-03,1.8853297457098961e-02],
"split_indices":[8,18,7,25,7,0,12,0,0,0,0,0,0],
"split_type":[0,0,0,0,0,0,0,0,0,0,0,0,0],
"sum_hessian":[0.0,0.0,0.0,0.0,0.0,0.0,0.0,0.0,0.0,0.0,0.0,0.0,0.0],
"tree_param":{"num_deleted":"0","num_feature":"27","num_nodes":"13","size_leaf_vector":"0"}
},
{
"base_weights":[0.0,0.0,0.0,0.0,0.0,0.0,0.0,0.0,0.0],
"categories":[],"categories_nodes":[],"categories_segments":[],"categories_sizes":[],
"default_left":[true,false,true,true,true,false,false,false,false],
"id":78,
"left_children":[1,-1,3,5,7,-1,-1,-1,-1],
"loss_changes":[0.0,0.0,0.0,0.0,0.0,0.0,0.0,0.0,0.0],
"parents":[2147483647,0,0,2,2,3,3,4,4],
"right_children":[2,-1,4,6,8,-1,-1,-1,-1],
"split_conditions":[5.4088872671127319e-01,-2.7868488803505898e-02,8.8813415527343750e+01,3.6209953308105469e+01,1.9047771394252777e-01,1.4387486502528191e-02,-3.3945997711271048e-03,1.3065961189568043e-02,-1.1767831631004810e-02],
"split_indices":[7,0,15,16,20,0,0,0,0],
"split_type":[0,0,0,0,0,0,0,0,0],
"sum_hessian":[0.0,0.0,0.0,0.0,0.0,0.0,0.0,0.0,0.0],
"tree_param":{"num_deleted":"0","num_feature":"27","num_nodes":"9","size_leaf_vector":"0"}
},
{
"base_weights":[0.0,0.0,0.0,0.0,0.0,0.0,0.0,0.0,0.0,0.0,0.0],
"categories":[],"categories_nodes":[],"categories_segments":[],"categories_sizes":[],
"default_left":[true,true,true,true,false,true,false,false,false,false,false],
"id":79,
"left_children":[1,3,5,7,-1,9,-1,-1,-1,-1,-1],
"loss_changes":[0.0,0.0,0.0,0.0,0.0,0.0,0.0,0.0,0.0,0.0,0.0],
"parents":[2147483647,0,0,1,1,2,2,3,3,5,5],
"right_children":[2,4,6,8,-1,10,-1,-1,-1,-1,-1],
"split_conditions":[5.7953811645507812e+01,9.1046859741210938e+01,1.2253013610839844e+02,1.0262149810791016e+02,-3.1398352235555649e-02,3.5836383819580078e+01,4.0681261569261551e-02,-4.7872788272798061e-03,3.2700490206480026e-02,1.0625237599015236e-02,-1.9719215109944344e-02],
"split_indices":[17,21,23,10,0,18,0,0,0,0,0],
"split_type":[0,0,0,0,0,0,0,0,0,0,0],
"sum_hessian":[0.0,0.0,0.0,0.0,0.0,0.0,0.0,0.0,0.0,0.0,0.0],
"tree_param":{"num_deleted":"0","num_feature":"27","num_nodes":"11","size_leaf_vector":"0"}
},
{
"base_weights":[0.0,0.0,0.0,0.0,0.0,0.0,0.0,0.0,0.0,0.0,0.0,0.0,0.0],
"categories":[],"categories_nodes":[],"categories_segments":[],"categories_sizes":[],
"default_left":[true,true,true,true,true,false,true,false,false,false,false,false,false],
"id":80,
"left_children":[1,3,5,7,9,-1,11,-1,-1,-1,-1,-1,-1],
"loss_changes":[0.0,0.0,0.0,0.0,0.0,0.0,0.0,0.0,0.0,0.0,0.0,0.0,0.0],
"parents":[2147483647,0,0,1,1,2,2,3,3,4,4,6,6],
"right_children":[2,4,6,8,10,-1,12,-1,-1,-1,-1,-1,-1],
"split_conditions":[4.7619044780731201e-01,4.3130737304687500e+01,7.9411590099334717e-01,3.9374958038330078e+01,4.4878458976745605e-01,-6.0794703662395477e-02,2.4921493530273438e+01,-1.6095699742436409e-02,3.9812400937080383e-02,3.4572821110486984e-02,7.1439370512962341e-03,1.1545000597834587e-02,-1.8066249787807465e-02],
"split_indices":[20,17,7,11,6,0,11,0,0,0,0,0,0],
"split_type":[0,0,0,0,0,0,0,0,0,0,0,0,0],
"sum_hessian":[0.0,0.0,0.0,0.0,0.0,0.0,0.0,0.0,0.0,0.0,0.0,0.0,0.0],
"tree_param":{"num_deleted":"0","num_feature":"27","num_nodes":"13","size_leaf_vector":"0"}
},
{
"base_weights":[0.0,0.0,0.0,0.0,0.0,0.0,0.0,0.0,0.0,0.0,0.0,0.0,0.0,0.0,0.0],
"categories":[],"categories_nodes":[],"categories_segments":[],"categories_sizes":[],
"default_left":[true,true,true,true,true,true,true,false,false,false,false,false,false,false,false],
"id":81,
"left_children":[1,3,5,7,9,11,13,-1,-1,-1,-1,-1,-1,-1,-1],
"loss_changes":[0.0,0.0,0.0,0.0,0.0,0.0,0.0,0.0,0.0,0.0,0.0,0.0,0.0,0.0,0.0],
"parents":[2147483647,0,0,1,1,2,2,3,3,4,4,5,5,6,6],
"right_children":[2,4,6,8,10,12,14,-1,-1,-1,-1,-1,-1,-1,-1],
"split_conditions":[6.5552154541015625e+01,2.6861730575561523e+01,2.9919939041137695e+00,2.4393033981323242e+00,4.3884654998779297e+01,1.8907277286052704e-01,3.0774819850921631e+00,5.8425255119800568e-03,-2.0974984392523766e-02,5.3489476442337036e-02,-8.3707338199019432e-03,-4.5344524085521698e-02,1.6957492334768176e-03,-5.9095979668200016e-03,3.6455236375331879e-02],
"split_indices":[10,18,2,7,12,25,2,0,0,0,0,0,0,0,0],
"split_type":[0,0,0,0,0,0,0,0,0,0,0,0,0,0,0],
"sum_hessian":[0.0,0.0,0.0,0.0,0.0,0.0,0.0,0.0,0.0,0.0,0.0,0.0,0.0,0.0,0.0],
"tree_param":{"num_deleted":"0","num_feature":"27","num_nodes":"15","size_leaf_vector":"0"}
},
{
"base_weights":[0.0,0.0,0.0,0.0,0.0,0.0,0.0,0.0,0.0],
"categories":[],"categories_nodes":[],"categories_segments":[],"categories_sizes":[],
"default_left":[true,true,false,true,true,false,false,false,false],
"id":82,
"left_children":[1,3,-1,5,7,-1,-1,-1,-1],
"loss_changes":[0.0,0.0,0.0,0.0,0.0,0.0,0.0,0.0,0.0],
"parents":[2147483647,0,0,1,1,3,3,4,4],
"right_children":[2,4,-1,6,8,-1,-1,-1,-1],
"split_conditions":[2.5912600708007812e+02,9.5677619934082031e+01,-9.1204373165965080e-03,9.0785156250000000e+01,1.2587400674819946e+00,-1.3383800396695733e-03,3.5205610096454620e-02,-3.5915885120630264e-02,5.9139044024050236e-03],
"split_indices":[24,10,0,21,7,0,0,0,0],
"split_type":[0,0,0,0,0,0,0,0,0],
"sum_hessian":[0.0,0.0,0.0,0.0,0.0,0.0,0.0,0.0,0.0],
"tree_param":{"num_deleted":"0","num_feature":"27","num_nodes":"9","size_leaf_vector":"0"}
},
{
"base_weights":[0.0,0.0,0.0,0.0,0.0,0.0,0.0,0.0,0.0],
"categories":[],"categories_nodes":[],"categories_segments":[],"categories_sizes":[],
"default_left":[true,true,true,true,false,false,false,false,false],
"id":83,
"left_children":[1,3,5,7,-1,-1,-1,-1,-1],
"loss_changes":[0.0,0.0,0.0,0.0,0.0,0.0,0.0,0.0,0.0],
"parents":[2147483647,0,0,1,1,2,2,3,3],
"right_children":[2,4,6,8,-1,-1,-1,-1,-1],
"split_conditions":[2.6927955150604248e+00,2.6927859783172607e+00,4.2850846052169800e-01,1.7952088117599487e+00,1.7695654183626175e-02,6.5092234872281551e-03,-3.1037494540214539e-02,9.2232199385762215e-03,-2.5552215520292521e-03],
"split_indices":[4,6,20,2,0,0,0,0,0],
"split_type":[0,0,0,0,0,0,0,0,0],
"sum_hessian":[0.0,0.0,0.0,0.0,0.0,0.0,0.0,0.0,0.0],
"tree_param":{"num_deleted":"0","num_feature":"27","num_nodes":"9","size_leaf_vector":"0"}
},
{
"base_weights":[0.0,0.0,0.0,0.0,0.0,0.0,0.0,0.0,0.0,0.0,0.0,0.0,0.0,0.0,0.0],
"categories":[],"categories_nodes":[],"categories_segments":[],"categories_sizes":[],
"default_left":[true,true,true,true,true,true,true,false,false,false,false,false,false,false,false],
"id":84,
"left_children":[1,3,5,7,9,11,13,-1,-1,-1,-1,-1,-1,-1,-1],
"loss_changes":[0.0,0.0,0.0,0.0,0.0,0.0,0.0,0.0,0.0,0.0,0.0,0.0,0.0,0.0,0.0],
"parents":[2147483647,0,0,1,1,2,2,3,3,4,4,5,5,6,6],
"right_children":[2,4,6,8,10,12,14,-1,-1,-1,-1,-1,-1,-1,-1],
"split_conditions":[2.5431938171386719e+00,1.8907277286052704e-01,7.5374352931976318e-01,1.7466956377029419e+00,3.0946722412109375e+02,2.9136435985565186e+00,2.8851537704467773e+00,-8.0530673265457153e-02,-5.1004309207201004e-03,-8.4812100976705551e-03,3.8279656320810318e-02,4.2294906452298164e-03,2.2517016157507896e-02,5.6156909522542264e-06,-3.5913143306970596e-02],
"split_indices":[3,25,25,8,14,3,3,0,0,0,0,0,0,0,0],
"split_type":[0,0,0,0,0,0,0,0,0,0,0,0,0,0,0],
"sum_hessian":[0.0,0.0,0.0,0.0,0.0,0.0,0.0,0.0,0.0,0.0,0.0,0.0,0.0,0.0,0.0],
"tree_param":{"num_deleted":"0","num_feature":"27","num_nodes":"15","size_leaf_vector":"0"}
},
{
"base_weights":[0.0,0.0,0.0,0.0,0.0,0.0,0.0,0.0,0.0],
"categories":[],"categories_nodes":[],"categories_segments":[],"categories_sizes":[],
"default_left":[true,true,true,true,false,false,false,false,false],
"id":85,
"left_children":[1,3,5,7,-1,-1,-1,-1,-1],
"loss_changes":[0.0,0.0,0.0,0.0,0.0,0.0,0.0,0.0,0.0],
"parents":[2147483647,0,0,1,1,2,2,3,3],
"right_children":[2,4,6,8,-1,-1,-1,-1,-1],
"split_conditions":[2.2605676651000977e+00,2.2623369693756104e+00,2.3936803340911865e+00,1.1865901947021484e+00,1.5204863622784615e-02,6.8189143203198910e-03,-2.6307540014386177e-02,1.0480135679244995e-02,-4.5375484041869640e-03],
"split_indices":[26,25,2,7,0,0,0,0,0],
"split_type":[0,0,0,0,0,0,0,0,0],
"sum_hessian":[0.0,0.0,0.0,0.0,0.0,0.0,0.0,0.0,0.0],
"tree_param":{"num_deleted":"0","num_feature":"27","num_nodes":"9","size_leaf_vector":"0"}
},
{
"base_weights":[0.0,0.0,0.0,0.0,0.0,0.0,0.0,0.0,0.0],
"categories":[],"categories_nodes":[],"categories_segments":[],"categories_sizes":[],
"default_left":[true,true,true,false,false,true,false,false,false],
"id":86,
"left_children":[1,3,5,-1,-1,7,-1,-1,-1],
"loss_changes":[0.0,0.0,0.0,0.0,0.0,0.0,0.0,0.0,0.0],
"parents":[2147483647,0,0,1,1,2,2,5,5],
"right_children":[2,4,6,-1,-1,8,-1,-1,-1],
"split_conditions":[1.3464143276214600e+00,2.5608421325683594e+01,1.0013243865966797e+02,7.4329273775219917e-03,-2.0514311268925667e-02,4.7678569793701172e+01,-2.0343463867902756e-02,8.7240496650338173e-03,-1.8704175949096680e-02],
"split_indices":[2,24,13,0,0,13,0,0,0],
"split_type":[0,0,0,0,0,0,0,0,0],
"sum_hessian":[0.0,0.0,0.0,0.0,0.0,0.0,0.0,0.0,0.0],
"tree_param":{"num_deleted":"0","num_feature":"27","num_nodes":"9","size_leaf_vector":"0"}
},
{
"base_weights":[0.0,0.0,0.0,0.0,0.0,0.0,0.0,0.0,0.0,0.0,0.0],
"categories":[],"categories_nodes":[],"categories_segments":[],"categories_sizes":[],
"default_left":[true,true,true,false,true,false,true,false,false,false,false],
"id":87,
"left_children":[1,3,5,-1,7,-1,9,-1,-1,-1,-1],
"loss_changes":[0.0,0.0,0.0,0.0,0.0,0.0,0.0,0.0,0.0,0.0,0.0],
"parents":[2147483647,0,0,1,1,2,2,4,4,6,6],
"right_children":[2,4,6,-1,8,-1,10,-1,-1,-1,-1],
"split_conditions":[1.0471946001052856e+00,4.4879767298698425e-01,4.4879767298698425e-01,1.8485123291611671e-02,3.7750122070312500e+01,-2.1575564518570900e-02,8.6435562133789062e+01,-1.7968816682696342e-02,1.7765985801815987e-02,2.0549822598695755e-02,-1.7957935109734535e-02],
"split_indices":[6,5,5,0,18,0,10,0,0,0,0],
"split_type":[0,0,0,0,0,0,0,0,0,0,0],
"sum_hessian":[0.0,0.0,0.0,0.0,0.0,0.0,0.0,0.0,0.0,0.0,0.0],
"tree_param":{"num_deleted":"0","num_feature":"27","num_nodes":"11","size_leaf_vector":"0"}
},
{
"base_weights":[0.0,0.0,0.0,0.0,0.0,0.0,0.0,0.0,0.0,0.0,0.0],
"categories":[],"categories_nodes":[],"categories_segments":[],"categories_sizes":[],
"default_left":[true,true,true,true,false,true,false,false,false,false,false],
"id":88,
"left_children":[1,3,5,7,-1,9,-1,-1,-1,-1,-1],
"loss_changes":[0.0,0.0,0.0,0.0,0.0,0.0,0.0,0.0,0.0,0.0,0.0],
"parents":[2147483647,0,0,1,1,2,2,3,3,5,5],
"right_children":[2,4,6,8,-1,10,-1,-1,-1,-1,-1],
"split_conditions":[1.5305423736572266e+00,4.9324573516845703e+01,9.2070983886718750e+01,1.9152084350585938e+01,3.3543873578310013e-02,2.1920160293579102e+01,-2.1998217329382896e-02,1.1397954076528549e-02,-2.5011353194713593e-02,-1.5535457991063595e-02,1.8321380019187927e-02],
"split_indices":[7,11,21,21,0,21,0,0,0,0,0],
"split_type":[0,0,0,0,0,0,0,0,0,0,0],
"sum_hessian":[0.0,0.0,0.0,0.0,0.0,0.0,0.0,0.0,0.0,0.0,0.0],
"tree_param":{"num_deleted":"0","num_feature":"27","num_nodes":"11","size_leaf_vector":"0"}
},
{
"base_weights":[0.0,0.0,0.0,0.0,0.0,0.0,0.0,0.0,0.0,0.0,0.0],
"categories":[],"categories_nodes":[],"categories_segments":[],"categories_sizes":[],
"default_left":[true,true,true,true,false,true,false,false,false,false,false],
"id":89,
"left_children":[1,3,5,7,-1,9,-1,-1,-1,-1,-1],
"loss_changes":[0.0,0.0,0.0,0.0,0.0,0.0,0.0,0.0,0.0,0.0,0.0],
"parents":[2147483647,0,0,1,1,2,2,3,3,5,5],
"right_children":[2,4,6,8,-1,10,-1,-1,-1,-1,-1],
"split_conditions":[1.9447963237762451e+00,9.2425598144531250e+01,1.0013243865966797e+02,2.0944316387176514e+00,3.4670308232307434e-02,1.2836891174316406e+02,-2.3701917380094528e-02,-5.0584904849529266e-02,5.1539442501962185e-03,1.0040824301540852e-02,-1.5832606703042984e-02],
"split_indices":[3,13,13,2,0,12,0,0,0,0,0],
"split_type":[0,0,0,0,0,0,0,0,0,0,0],
"sum_hessian":[0.0,0.0,0.0,0.0,0.0,0.0,0.0,0.0,0.0,0.0,0.0],
"tree_param":{"num_deleted":"0","num_feature":"27","num_nodes":"11","size_leaf_vector":"0"}
},
{
"base_weights":[0.0,0.0,0.0,0.0,0.0,0.0,0.0,0.0,0.0],
"categories":[],"categories_nodes":[],"categories_segments":[],"categories_sizes":[],
"default_left":[true,false,true,true,true,false,false,false,false],
"id":90,
"left_children":[1,-1,3,5,7,-1,-1,-1,-1],
"loss_changes":[0.0,0.0,0.0,0.0,0.0,0.0,0.0,0.0,0.0],
"parents":[2147483647,0,0,2,2,3,3,4,4],
"right_children":[2,-1,4,6,8,-1,-1,-1,-1],
"split_conditions":[1.4963001012802124e-01,-1.0502582415938377e-02,5.9839689731597900e-01,1.1107823371887207e+01,1.0570965576171875e+02,-7.5569194741547108e-03,3.0136136338114738e-02,-5.0103222019970417e-03,3.7963718175888062e-02],
"split_indices":[4,0,6,22,17,0,0,0,0],
"split_type":[0,0,0,0,0,0,0,0,0],
"sum_hessian":[0.0,0.0,0.0,0.0,0.0,0.0,0.0,0.0,0.0],
"tree_param":{"num_deleted":"0","num_feature":"27","num_nodes":"9","size_leaf_vector":"0"}
},
{
"base_weights":[0.0,0.0,0.0,0.0,0.0,0.0,0.0,0.0,0.0,0.0,0.0],
"categories":[],"categories_nodes":[],"categories_segments":[],"categories_sizes":[],
"default_left":[true,true,true,true,false,true,false,false,false,false,false],
"id":91,
"left_children":[1,3,5,7,-1,9,-1,-1,-1,-1,-1],
"loss_changes":[0.0,0.0,0.0,0.0,0.0,0.0,0.0,0.0,0.0,0.0,0.0],
"parents":[2147483647,0,0,1,1,2,2,3,3,5,5],
"right_children":[2,4,6,8,-1,10,-1,-1,-1,-1,-1],
"split_conditions":[2.2709146118164062e+02,3.2374150753021240e+00,3.1919527053833008e+00,2.9298217296600342e+00,4.0250662714242935e-02,2.7387924194335938e+00,-2.2991616278886795e-02,6.4453161321580410e-03,-2.5278506800532341e-02,-1.1645724996924400e-02,1.1747706681489944e-02],
"split_indices":[1,9,9,9,0,9,0,0,0,0,0],
"split_type":[0,0,0,0,0,0,0,0,0,0,0],
"sum_hessian":[0.0,0.0,0.0,0.0,0.0,0.0,0.0,0.0,0.0,0.0,0.0],
"tree_param":{"num_deleted":"0","num_feature":"27","num_nodes":"11","size_leaf_vector":"0"}
},
{
"base_weights":[0.0,0.0,0.0,0.0,0.0,0.0,0.0,0.0,0.0,0.0,0.0,0.0,0.0,0.0,0.0],
"categories":[],"categories_nodes":[],"categories_segments":[],"categories_sizes":[],
"default_left":[true,true,true,true,true,true,true,false,false,false,false,false,false,false,false],
"id":92,
"left_children":[1,3,5,7,9,11,13,-1,-1,-1,-1,-1,-1,-1,-1],
"loss_changes":[0.0,0.0,0.0,0.0,0.0,0.0,0.0,0.0,0.0,0.0,0.0,0.0,0.0,0.0,0.0],
"parents":[2147483647,0,0,1,1,2,2,3,3,4,4,5,5,6,6],
"right_children":[2,4,6,8,10,12,14,-1,-1,-1,-1,-1,-1,-1,-1],
"split_conditions":[2.5764899253845215e+00,9.3979614257812500e+01,2.6928446292877197e+00,3.5650848388671875e+01,7.4797433614730835e-01,2.1280849456787109e+01,4.3170322418212891e+01,-1.4287998899817467e-02,1.3410314917564392e-02,-3.1991884112358093e-02,-3.7081185728311539e-03,1.6714161261916161e-02,-7.5487005524337292e-03,-4.6184767037630081e-02,-3.4237406216561794e-03],
"split_indices":[8,17,2,0,6,11,12,0,0,0,0,0,0,0,0],
"split_type":[0,0,0,0,0,0,0,0,0,0,0,0,0,0,0],
"sum_hessian":[0.0,0.0,0.0,0.0,0.0,0.0,0.0,0.0,0.0,0.0,0.0,0.0,0.0,0.0,0.0],
"tree_param":{"num_deleted":"0","num_feature":"27","num_nodes":"15","size_leaf_vector":"0"}
},
{
"base_weights":[0.0,0.0,0.0,0.0,0.0,0.0,0.0,0.0,0.0],
"categories":[],"categories_nodes":[],"categories_segments":[],"categories_sizes":[],
"default_left":[true,true,true,false,false,false,true,false,false],
"id":93,
"left_children":[1,3,5,-1,-1,-1,7,-1,-1],
"loss_changes":[0.0,0.0,0.0,0.0,0.0,0.0,0.0,0.0,0.0],
"parents":[2147483647,0,0,1,1,2,2,6,6],
"right_children":[2,4,6,-1,-1,-1,8,-1,-1],
"split_conditions":[9.5238685607910156e-02,1.3463929891586304e+00,7.4802178144454956e-01,-1.1219504522159696e-03,-2.3884702473878860e-02,-1.1908101849257946e-02,7.0106292724609375e+01,6.3896784558892250e-03,-1.5751436352729797e-02],
"split_indices":[20,6,2,0,0,0,0,0,0],
"split_type":[0,0,0,0,0,0,0,0,0],
"sum_hessian":[0.0,0.0,0.0,0.0,0.0,0.0,0.0,0.0,0.0],
"tree_param":{"num_deleted":"0","num_feature":"27","num_nodes":"9","size_leaf_vector":"0"}
},
{
"base_weights":[0.0,0.0,0.0,0.0,0.0,0.0,0.0],
"categories":[],"categories_nodes":[],"categories_segments":[],"categories_sizes":[],
"default_left":[true,false,true,true,false,false,false],
"id":94,
"left_children":[1,-1,3,5,-1,-1,-1],
"loss_changes":[0.0,0.0,0.0,0.0,0.0,0.0,0.0],
"parents":[2147483647,0,0,2,2,3,3],
"right_children":[2,-1,4,6,-1,-1,-1],
"split_conditions":[7.8202491998672485e-01,1.1704008094966412e-02,6.4794128417968750e+01,5.4357246398925781e+01,-1.4258312992751598e-02,-1.4089752221480012e-03,2.3745680227875710e-02],
"split_indices":[8,0,16,16,0,0,0],
"split_type":[0,0,0,0,0,0,0],
"sum_hessian":[0.0,0.0,0.0,0.0,0.0,0.0,0.0],
"tree_param":{"num_deleted":"0","num_feature":"27","num_nodes":"7","size_leaf_vector":"0"}
},
{
"base_weights":[0.0,0.0,0.0,0.0,0.0,0.0,0.0,0.0,0.0,0.0,0.0,0.0,0.0],
"categories":[],"categories_nodes":[],"categories_segments":[],"categories_sizes":[],
"default_left":[true,true,true,false,true,true,true,false,false,false,false,false,false],
"id":95,
"left_children":[1,3,5,-1,7,9,11,-1,-1,-1,-1,-1,-1],
"loss_changes":[0.0,0.0,0.0,0.0,0.0,0.0,0.0,0.0,0.0,0.0,0.0,0.0,0.0],
"parents":[2147483647,0,0,1,1,2,2,4,4,5,5,6,6],
"right_children":[2,4,6,-1,8,10,12,-1,-1,-1,-1,-1,-1],
"split_conditions":[2.2440032958984375e+00,1.1542838096618652e+01,3.0076595306396484e+01,2.3713955655694008e-02,1.1302838325500488e+00,1.3038262939453125e+02,9.2070983886718750e+01,-3.6628413945436478e-02,1.2932515703141689e-02,-2.0783795043826103e-02,1.0690971277654171e-02,1.2189095839858055e-02,-2.0779905840754509e-02],
"split_indices":[2,11,22,0,26,24,21,0,0,0,0,0,0],
"split_type":[0,0,0,0,0,0,0,0,0,0,0,0,0],
"sum_hessian":[0.0,0.0,0.0,0.0,0.0,0.0,0.0,0.0,0.0,0.0,0.0,0.0,0.0],
"tree_param":{"num_deleted":"0","num_feature":"27","num_nodes":"13","size_leaf_vector":"0"}
},
{
"base_weights":[0.0,0.0,0.0,0.0,0.0,0.0,0.0,0.0,0.0,0.0,0.0,0.0,0.0],
"categories":[],"categories_nodes":[],"categories_segments":[],"categories_sizes":[],
"default_left":[true,true,true,true,true,true,false,false,false,false,false,false,false],
"id":96,
"left_children":[1,3,5,7,9,11,-1,-1,-1,-1,-1,-1,-1],
"loss_changes":[0.0,0.0,0.0,0.0,0.0,0.0,0.0,0.0,0.0,0.0,0.0,0.0,0.0],
"parents":[2147483647,0,0,1,1,2,2,3,3,4,4,5,5],
"right_children":[2,4,6,8,10,12,-1,-1,-1,-1,-1,-1,-1],
"split_conditions":[1.7951906919479370e+00,4.6803497314453125e+01,1.6954257488250732e+00,3.5659152984619141e+01,6.1647483825683594e+01,3.7166877746582031e+01,-1.8565544858574867e-02,-6.3379782659467310e-05,-4.6940751373767853e-02,2.9624836519360542e-02,-2.2359484806656837e-02,2.7304012328386307e-02,-4.1198320686817169e-03],
"split_indices":[5,23,26,23,22,16,0,0,0,0,0,0,0],
"split_type":[0,0,0,0,0,0,0,0,0,0,0,0,0],
"sum_hessian":[0.0,0.0,0.0,0.0,0.0,0.0,0.0,0.0,0.0,0.0,0.0,0.0,0.0],
"tree_param":{"num_deleted":"0","num_feature":"27","num_nodes":"13","size_leaf_vector":"0"}
},
{
"base_weights":[0.0,0.0,0.0,0.0,0.0,0.0,0.0,0.0,0.0,0.0,0.0,0.0,0.0],
"categories":[],"categories_nodes":[],"categories_segments":[],"categories_sizes":[],
"default_left":[true,true,true,true,true,false,true,false,false,false,false,false,false],
"id":97,
"left_children":[1,3,5,7,9,-1,11,-1,-1,-1,-1,-1,-1],
"loss_changes":[0.0,0.0,0.0,0.0,0.0,0.0,0.0,0.0,0.0,0.0,0.0,0.0,0.0],
"parents":[2147483647,0,0,1,1,2,2,3,3,4,4,6,6],
"right_children":[2,4,6,8,10,-1,12,-1,-1,-1,-1,-1,-1],
"split_conditions":[6.1647483825683594e+01,4.4882595539093018e-01,1.8758617639541626e+00,1.7610507965087891e+01,8.8067684173583984e+00,4.1095472872257233e-02,8.3156097412109375e+01,8.6265504360198975e-03,-2.2578286007046700e-02,-1.7703017219901085e-02,6.8040764890611172e-03,3.1402189284563065e-02,-5.4682925343513489e-02],
"split_indices":[22,4,6,22,22,0,10,0,0,0,0,0,0],
"split_type":[0,0,0,0,0,0,0,0,0,0,0,0,0],
"sum_hessian":[0.0,0.0,0.0,0.0,0.0,0.0,0.0,0.0,0.0,0.0,0.0,0.0,0.0],
"tree_param":{"num_deleted":"0","num_feature":"27","num_nodes":"13","size_leaf_vector":"0"}
},
{
"base_weights":[0.0,0.0,0.0,0.0,0.0,0.0,0.0,0.0,0.0,0.0,0.0,0.0,0.0],
"categories":[],"categories_nodes":[],"categories_segments":[],"categories_sizes":[],
"default_left":[true,true,true,true,false,true,true,false,false,false,false,false,false],
"id":98,
"left_children":[1,3,5,7,-1,9,11,-1,-1,-1,-1,-1,-1],
"loss_changes":[0.0,0.0,0.0,0.0,0.0,0.0,0.0,0.0,0.0,0.0,0.0,0.0,0.0],
"parents":[2147483647,0,0,1,1,2,2,3,3,5,5,6,6],
"right_children":[2,4,6,8,-1,10,12,-1,-1,-1,-1,-1,-1],
"split_conditions":[2.3935945034027100e+00,9.2425598144531250e+01,2.2931159973144531e+02,2.3936302661895752e+00,1.0213519446551800e-02,1.7239677429199219e+02,2.8424191474914551e+00,-2.3396492004394531e-02,9.4989761710166931e-03,3.4887322690337896e-03,4.0105823427438736e-02,-1.9865052774548531e-02,4.7108572907745838e-03],
"split_indices":[3,13,1,2,0,24,2,0,0,0,0,0,0],
"split_type":[0,0,0,0,0,0,0,0,0,0,0,0,0],
"sum_hessian":[0.0,0.0,0.0,0.0,0.0,0.0,0.0,0.0,0.0,0.0,0.0,0.0,0.0],
"tree_param":{"num_deleted":"0","num_feature":"27","num_nodes":"13","size_leaf_vector":"0"}
},
{
"base_weights":[0.0,0.0,0.0,0.0,0.0,0.0,0.0,0.0,0.0,0.0,0.0,0.0,0.0],
"categories":[],"categories_nodes":[],"categories_segments":[],"categories_sizes":[],
"default_left":[true,true,true,false,true,true,true,false,false,false,false,false,false],
"id":99,
"left_children":[1,3,5,-1,7,9,11,-1,-1,-1,-1,-1,-1],
"loss_changes":[0.0,0.0,0.0,0.0,0.0,0.0,0.0,0.0,0.0,0.0,0.0,0.0,0.0],
"parents":[2147483647,0,0,1,1,2,2,4,4,5,5,6,6],
"right_children":[2,4,6,-1,8,10,12,-1,-1,-1,-1,-1,-1],
"split_conditions":[2.2440032958984375e+00,1.9042149186134338e-01,1.9047662615776062e-01,-1.8686363473534584e-02,5.8202270507812500e+01,3.4079292297363281e+01,3.7329383850097656e+01,2.7582695707678795e-02,-2.1194904111325741e-03,-2.5040805339813232e-03,3.9970152080059052e-02,-7.8533409396186471e-04,-2.5305738672614098e-02],
"split_indices":[2,20,20,0,12,11,11,0,0,0,0,0,0],
"split_type":[0,0,0,0,0,0,0,0,0,0,0,0,0],
"sum_hessian":[0.0,0.0,0.0,0.0,0.0,0.0,0.0,0.0,0.0,0.0,0.0,0.0,0.0],
"tree_param":{"num_deleted":"0","num_feature":"27","num_nodes":"13","size_leaf_vector":"0"}
},
{
"base_weights":[0.0,0.0,0.0,0.0,0.0,0.0,0.0,0.0,0.0,0.0,0.0,0.0,0.0,0.0,0.0],
"categories":[],"categories_nodes":[],"categories_segments":[],"categories_sizes":[],
"default_left":[true,true,true,true,true,true,true,false,false,false,false,false,false,false,false],
"id":100,
"left_children":[1,3,5,7,9,11,13,-1,-1,-1,-1,-1,-1,-1,-1],
"loss_changes":[0.0,0.0,0.0,0.0,0.0,0.0,0.0,0.0,0.0,0.0,0.0,0.0,0.0,0.0,0.0],
"parents":[2147483647,0,0,1,1,2,2,3,3,4,4,5,5,6,6],
"right_children":[2,4,6,8,10,12,14,-1,-1,-1,-1,-1,-1,-1,-1],
"split_conditions":[4.0843376159667969e+01,1.7504117965698242e+01,5.7953811645507812e+01,2.6927826404571533e+00,3.6724292755126953e+01,2.8974157333374023e+01,1.4960416555404663e+00,8.5016442462801933e-03,-2.0904021337628365e-02,3.3532243221998215e-02,-1.9445154815912247e-02,-3.3923059701919556e-02,9.7419053781777620e-04,-1.1340040713548660e-02,1.5413347631692886e-02],
"split_indices":[23,23,17,2,21,16,3,0,0,0,0,0,0,0,0],
"split_type":[0,0,0,0,0,0,0,0,0,0,0,0,0,0,0],
"sum_hessian":[0.0,0.0,0.0,0.0,0.0,0.0,0.0,0.0,0.0,0.0,0.0,0.0,0.0,0.0,0.0],
"tree_param":{"num_deleted":"0","num_feature":"27","num_nodes":"15","size_leaf_vector":"0"}
},
{
"base_weights":[0.0,0.0,0.0,0.0,0.0,0.0,0.0,0.0,0.0],
"categories":[],"categories_nodes":[],"categories_segments":[],"categories_sizes":[],
"default_left":[true,true,false,true,true,false,false,false,false],
"id":101,
"left_children":[1,3,-1,5,7,-1,-1,-1,-1],
"loss_changes":[0.0,0.0,0.0,0.0,0.0,0.0,0.0,0.0,0.0],
"parents":[2147483647,0,0,1,1,3,3,4,4],
"right_children":[2,4,-1,6,8,-1,-1,-1,-1],
"split_conditions":[2.8360915184020996e+00,1.3464143276214600e+00,1.2890934944152832e-02,2.5608421325683594e+01,5.8675090789794922e+01,6.4477103296667337e-04,-1.9825218245387077e-02,4.8946388997137547e-03,-7.1548661217093468e-03],
"split_indices":[25,2,0,24,0,0,0,0,0],
"split_type":[0,0,0,0,0,0,0,0,0],
"sum_hessian":[0.0,0.0,0.0,0.0,0.0,0.0,0.0,0.0,0.0],
"tree_param":{"num_deleted":"0","num_feature":"27","num_nodes":"9","size_leaf_vector":"0"}
},
{
"base_weights":[0.0,0.0,0.0,0.0,0.0,0.0,0.0,0.0,0.0,0.0,0.0],
"categories":[],"categories_nodes":[],"categories_segments":[],"categories_sizes":[],
"default_left":[true,true,true,true,false,true,false,false,false,false,false],
"id":102,
"left_children":[1,3,5,7,-1,9,-1,-1,-1,-1,-1],
"loss_changes":[0.0,0.0,0.0,0.0,0.0,0.0,0.0,0.0,0.0,0.0,0.0],
"parents":[2147483647,0,0,1,1,2,2,3,3,5,5],
"right_children":[2,4,6,8,-1,10,-1,-1,-1,-1,-1],
"split_conditions":[1.3463987112045288e+00,1.6848032474517822e+00,2.2688732147216797e+00,2.2183291625976562e+02,-1.5303692780435085e-02,1.2836891174316406e+02,1.8331198021769524e-02,1.1292356066405773e-04,4.3783452361822128e-02,-1.3951859727967530e-04,-2.1016485989093781e-02],
"split_indices":[3,26,25,14,0,12,0,0,0,0,0],
"split_type":[0,0,0,0,0,0,0,0,0,0,0],
"sum_hessian":[0.0,0.0,0.0,0.0,0.0,0.0,0.0,0.0,0.0,0.0,0.0],
"tree_param":{"num_deleted":"0","num_feature":"27","num_nodes":"11","size_leaf_vector":"0"}
},
{
